{"learner":{"attributes":{"best_iteration":"169","best_score":"0.9997231398532523"},"feature_names":["gw_hit_ratio","gw_min_step","gw_avg_step","gw_unique_illicit","gcn_0","gcn_1","gcn_2","gcn_3","gcn_4","gcn_5","gcn_6","gcn_7","gcn_8","gcn_9","gcn_10","gcn_11","gcn_12","gcn_13","gcn_14","gcn_15","gcn_16","gcn_17","gcn_18","gcn_19","gcn_20","gcn_21","gcn_22","gcn_23","gcn_24","gcn_25","gcn_26","gcn_27","gcn_28","gcn_29","gcn_30","gcn_31","gcn_32","gcn_33","gcn_34","gcn_35","gcn_36","gcn_37","gcn_38","gcn_39","gcn_40","gcn_41","gcn_42","gcn_43","gcn_44","gcn_45","gcn_46","gcn_47","gcn_48","gcn_49","gcn_50","gcn_51","gcn_52","gcn_53","gcn_54","gcn_55","gcn_56","gcn_57","gcn_58","gcn_59","gcn_60","gcn_61","gcn_62","gcn_63","transaction_0","transaction_1","transaction_2","transaction_3","transaction_4","transaction_5","transaction_6","transaction_7","transaction_8","transaction_9","transaction_10","transaction_11","transaction_12","transaction_13","transaction_14","transaction_15","transaction_16","transaction_17","transaction_18","transaction_19","transaction_20","transaction_21","transaction_22","transaction_23","transaction_24","transaction_25","transaction_26","transaction_27","transaction_28","transaction_29","transaction_30","transaction_31","transaction_32","transaction_33","transaction_34","transaction_35","transaction_36","transaction_37","transaction_38","transaction_39","transaction_40","transaction_41","transaction_42","transaction_43","transaction_44","transaction_45","transaction_46","transaction_47","transaction_48","transaction_49","transaction_50","transaction_51","transaction_52","transaction_53","transaction_54","transaction_55","transaction_56","transaction_57","transaction_58","transaction_59","transaction_60","transaction_61","transaction_62","transaction_63","transaction_64","transaction_65","transaction_66","transaction_67","transaction_68","transaction_69","transaction_70","transaction_71","transaction_72","transaction_73","transaction_74","transaction_75","transaction_76","transaction_77","transaction_78","transaction_79","transaction_80","transaction_81","transaction_82","transaction_83","transaction_84","transaction_85","transaction_86","transaction_87","transaction_88","transaction_89","transaction_90","transaction_91","transaction_92","neighbors_0","neighbors_1","neighbors_2","neighbors_3","neighbors_4","neighbors_5","neighbors_6","neighbors_7","neighbors_8","neighbors_9","neighbors_10","neighbors_11","neighbors_12","neighbors_13","neighbors_14","neighbors_15","neighbors_16","neighbors_17","neighbors_18","neighbors_19","neighbors_20","neighbors_21","neighbors_22","neighbors_23","neighbors_24","neighbors_25","neighbors_26","neighbors_27","neighbors_28","neighbors_29","neighbors_30","neighbors_31","neighbors_32","neighbors_33","neighbors_34","neighbors_35","neighbors_36","neighbors_37","neighbors_38","neighbors_39","neighbors_40","neighbors_41","neighbors_42","neighbors_43","neighbors_44","neighbors_45","neighbors_46","neighbors_47","neighbors_48","neighbors_49","neighbors_50","neighbors_51","neighbors_52","neighbors_53","neighbors_54","neighbors_55","neighbors_56","neighbors_57","neighbors_58","neighbors_59","neighbors_60","neighbors_61","neighbors_62","neighbors_63","neighbors_64","neighbors_65","neighbors_66","neighbors_67","neighbors_68","neighbors_69","neighbors_70","neighbors_71","anomaly_score"],"feature_types":["float","int","float","int","float","float","float","float","float","float","float","float","float","float","float","float","float","float","float","float","float","float","float","float","float","float","float","float","float","float","float","float","float","float","float","float","float","float","float","float","float","float","float","float","float","float","float","float","float","float","float","float","float","float","float","float","float","float","float","float","float","float","float","float","float","float","float","float","float","float","float","float","float","float","float","float","float","float","float","float","float","float","float","float","float","float","float","float","float","float","float","float","float","float","float","float","float","float","float","float","float","float","float","float","float","float","float","float","float","float","float","float","float","float","float","float","float","float","float","float","float","float","float","float","float","float","float","float","float","float","float","float","float","float","float","float","float","float","float","float","float","float","float","float","float","float","float","float","float","float","float","float","float","float","float","float","float","float","float","float","float","float","float","float","float","float","float","float","float","float","float","float","float","float","float","float","float","float","float","float","float","float","float","float","float","float","float","float","float","float","float","float","float","float","float","float","float","float","float","float","float","float","float","float","float","float","float","float","float","float","float","float","float","float","float","float","float","float","float","float","float","float","float","float","float","float","float","float","float","float","float","float","float","float"],"gradient_booster":{"model":{"gbtree_model_param":{"num_parallel_tree":"1","num_trees":"171"},"iteration_indptr":[0,1,2,3,4,5,6,7,8,9,10,11,12,13,14,15,16,17,18,19,20,21,22,23,24,25,26,27,28,29,30,31,32,33,34,35,36,37,38,39,40,41,42,43,44,45,46,47,48,49,50,51,52,53,54,55,56,57,58,59,60,61,62,63,64,65,66,67,68,69,70,71,72,73,74,75,76,77,78,79,80,81,82,83,84,85,86,87,88,89,90,91,92,93,94,95,96,97,98,99,100,101,102,103,104,105,106,107,108,109,110,111,112,113,114,115,116,117,118,119,120,121,122,123,124,125,126,127,128,129,130,131,132,133,134,135,136,137,138,139,140,141,142,143,144,145,146,147,148,149,150,151,152,153,154,155,156,157,158,159,160,161,162,163,164,165,166,167,168,169,170,171],"tree_info":[0,0,0,0,0,0,0,0,0,0,0,0,0,0,0,0,0,0,0,0,0,0,0,0,0,0,0,0,0,0,0,0,0,0,0,0,0,0,0,0,0,0,0,0,0,0,0,0,0,0,0,0,0,0,0,0,0,0,0,0,0,0,0,0,0,0,0,0,0,0,0,0,0,0,0,0,0,0,0,0,0,0,0,0,0,0,0,0,0,0,0,0,0,0,0,0,0,0,0,0,0,0,0,0,0,0,0,0,0,0,0,0,0,0,0,0,0,0,0,0,0,0,0,0,0,0,0,0,0,0,0,0,0,0,0,0,0,0,0,0,0,0,0,0,0,0,0,0,0,0,0,0,0,0,0,0,0,0,0,0,0,0,0,0,0,0,0,0,0,0,0],"trees":[{"base_weights":[6.256727E-1,-4.814559E0,1.0168091E0,-5.2392516E-2,-6.5304174E0,-4.2236814E-1,1.0910249E0,1.8843155E-1,-1.1281418E0,-1.3081445E0,-7.6919234E-1,-9.80878E-1,1.8016697E-1,-2.9410657E-1,2.2218333E-1],"categories":[],"categories_nodes":[],"categories_segments":[],"categories_sizes":[],"default_left":[0,0,0,0,0,0,0,0,0,0,0,0,0,0,0],"id":0,"left_children":[1,3,5,7,9,11,13,-1,-1,-1,-1,-1,-1,-1,-1],"loss_changes":[3.7860484E5,9.751631E4,1.7731234E4,1.7624195E4,1.1590625E2,4.8317695E4,8.0510625E3,0E0,0E0,0E0,0E0,0E0,0E0,0E0,0E0],"parents":[2147483647,0,0,1,1,2,2,3,3,4,4,5,5,6,6],"right_children":[2,4,6,8,10,12,14,-1,-1,-1,-1,-1,-1,-1,-1],"split_conditions":[3.7086039E0,-4.441195E-2,5.0588455E0,5.89576E0,1.6586334E0,-9.539683E-2,-3.9151106E-2,1.8843155E-1,-1.1281418E0,-1.3081445E0,-7.6919234E-1,-9.80878E-1,1.8016697E-1,-2.9410657E-1,2.2218333E-1],"split_indices":[5,72,5,4,227,143,125,0,0,0,0,0,0,0,0],"split_type":[0,0,0,0,0,0,0,0,0,0,0,0,0,0,0],"sum_hessian":[1.7791011E5,1.1929434E4,1.6598069E5,3.1611736E3,8.76826E3,8.1383594E3,1.5784233E5,2.687092E3,4.7408148E2,8.727539E3,4.0720463E1,1.8519344E3,6.286425E3,1.213427E3,1.5662889E5],"tree_param":{"num_deleted":"0","num_feature":"234","num_nodes":"15","size_leaf_vector":"1"}},{"base_weights":[6.028168E-1,-1.9507222E0,1.0011266E0,3.0680445E-1,-2.5509293E0,2.722867E-1,1.0677555E0,1.8092252E-1,-4.8618737E-1,-4.990661E-1,-6.576432E-1,1.4832504E-1,-6.1247104E-1,2.14775E-1,-9.5571214E-1],"categories":[],"categories_nodes":[],"categories_segments":[],"categories_sizes":[],"default_left":[0,0,0,0,0,0,0,0,0,0,0,0,0,0,0],"id":1,"left_children":[1,3,5,7,9,11,13,-1,-1,-1,-1,-1,-1,-1,-1],"loss_changes":[1.6646283E5,2.9928305E4,6.8735625E3,7.609487E3,6.735703E2,1.8581127E4,4.666047E3,0E0,0E0,0E0,0E0,0E0,0E0,0E0,0E0],"parents":[2147483647,0,0,1,1,2,2,3,3,4,4,5,5,6,6],"right_children":[2,4,6,8,10,12,14,-1,-1,-1,-1,-1,-1,-1,-1],"split_conditions":[4.2800217E0,-4.340097E-2,5.6125345E0,6.4470944E0,3.7086039E0,6.7251606E0,1.1900193E-1,1.8092252E-1,-4.8618737E-1,-4.990661E-1,-6.576432E-1,1.4832504E-1,-6.1247104E-1,2.14775E-1,-9.5571214E-1],"split_indices":[5,81,5,4,5,4,81,0,0,0,0,0,0,0,0],"split_type":[0,0,0,0,0,0,0,0,0,0,0,0,0,0,0],"sum_hessian":[1.6364972E5,2.207953E4,1.415702E5,4.63782E3,1.7441709E4,1.1860243E4,1.2970995E5,3.8093923E3,8.2842755E2,1.6239173E4,1.2025358E3,1.0400351E4,1.4598927E3,1.2957842E5,1.3153514E2],"tree_param":{"num_deleted":"0","num_feature":"234","num_nodes":"15","size_leaf_vector":"1"}},{"base_weights":[5.663229E-1,-1.4553938E0,9.65411E-1,3.9859182E-1,-1.9374443E0,-1.0530822E0,1.0056422E0,1.7026286E-1,-4.0117875E-1,-3.8114023E-1,-4.4442627E-1,-7.1605396E-1,8.8092834E-2,2.0720719E-1,1.8316858E-2],"categories":[],"categories_nodes":[],"categories_segments":[],"categories_sizes":[],"default_left":[0,0,0,0,0,0,0,0,0,0,0,0,0,0,0],"id":2,"left_children":[1,3,5,7,9,11,13,-1,-1,-1,-1,-1,-1,-1,-1],"loss_changes":[1.154489E5,2.1086328E4,9.708945E3,5.3118E3,1.4760938E2,8.831099E3,3.2543594E3,0E0,0E0,0E0,0E0,0E0,0E0,0E0,0E0],"parents":[2147483647,0,0,1,1,2,2,3,3,4,4,5,5,6,6],"right_children":[2,4,6,8,10,12,14,-1,-1,-1,-1,-1,-1,-1,-1],"split_conditions":[4.4742613E0,-4.441195E-2,-3.915108E-2,6.9597955E0,3.7086039E0,7.5708847E0,9.775898E0,1.7026286E-1,-4.0117875E-1,-3.8114023E-1,-4.4442627E-1,-7.1605396E-1,8.8092834E-2,2.0720719E-1,1.8316858E-2],"split_indices":[5,72,125,4,5,5,4,0,0,0,0,0,0,0,0],"split_type":[0,0,0,0,0,0,0,0,0,0,0,0,0,0,0],"sum_hessian":[1.4307353E5,2.3584535E4,1.1948899E5,4.8669E3,1.8717635E4,2.3325188E3,1.1715648E5,4.0984966E3,7.684035E2,1.6874875E4,1.8427609E3,8.6387E2,1.4686489E3,1.1338546E5,3.7710134E3],"tree_param":{"num_deleted":"0","num_feature":"234","num_nodes":"15","size_leaf_vector":"1"}},{"base_weights":[5.344965E-1,-1.2172885E0,9.2547816E-1,4.0526125E-1,-1.632703E0,-7.4187505E-1,9.6714824E-1,1.5639114E-1,-3.896024E-1,-3.2795107E-1,-7.223635E-2,-4.45973E-1,6.504904E-2,7.810521E-2,2.0564859E-1],"categories":[],"categories_nodes":[],"categories_segments":[],"categories_sizes":[],"default_left":[0,0,0,0,0,0,0,0,0,0,0,0,0,0,0],"id":3,"left_children":[1,3,5,7,9,11,13,-1,-1,-1,-1,-1,-1,-1,-1],"loss_changes":[8.528214E4,1.5317613E4,7.0759453E3,4.1164595E3,1.590625E2,3.9491646E3,3.4964531E3,0E0,0E0,0E0,0E0,0E0,0E0,0E0,0E0],"parents":[2147483647,0,0,1,1,2,2,3,3,4,4,5,5,6,6],"right_children":[2,4,6,8,10,12,14,-1,-1,-1,-1,-1,-1,-1,-1],"split_conditions":[4.5346785E0,-4.430225E-2,-3.915108E-2,-4.5835307E-1,6.69298E-1,7.3550096E0,5.7649784E0,1.5639114E-1,-3.896024E-1,-3.2795107E-1,-7.223635E-2,-4.45973E-1,6.504904E-2,7.810521E-2,2.0564859E-1],"split_indices":[5,72,125,120,143,5,5,0,0,0,0,0,0,0,0],"split_type":[0,0,0,0,0,0,0,0,0,0,0,0,0,0,0],"sum_hessian":[1.245016E5,2.2715312E4,1.0178629E5,4.630219E3,1.8085094E4,2.4796885E3,9.93066E4,3.9942332E3,6.359861E2,1.798382E4,1.0127306E2,1.0333848E3,1.4463036E3,9.517485E3,8.978912E4],"tree_param":{"num_deleted":"0","num_feature":"234","num_nodes":"15","size_leaf_vector":"1"}},{"base_weights":[5.09582E-1,-1.0153046E0,9.020078E-1,4.70075E-1,-1.4687145E0,-6.2894866E-2,9.658121E-1,1.5024821E-1,-3.5822278E-1,-2.9814768E-1,-2.0190966E-1,-3.8917577E-1,1.03642106E-1,1.9399886E-1,-1.2994281E0],"categories":[],"categories_nodes":[],"categories_segments":[],"categories_sizes":[],"default_left":[0,0,0,0,0,0,0,0,0,0,0,0,0,0,0],"id":4,"left_children":[1,3,5,7,9,11,13,-1,-1,-1,-1,-1,-1,-1,-1],"loss_changes":[6.4526008E4,1.4867957E4,5.28E3,3.2905488E3,1.6323047E2,5.830267E3,2.5415469E3,0E0,0E0,0E0,0E0,0E0,0E0,0E0,0E0],"parents":[2147483647,0,0,1,1,2,2,3,3,4,4,5,5,6,6],"right_children":[2,4,6,8,10,12,14,-1,-1,-1,-1,-1,-1,-1,-1],"split_conditions":[4.769608E0,-4.340097E-2,-3.9151024E-2,-2.3489596E-1,1.3301663E-1,6.8762336E0,1.6497684E0,1.5024821E-1,-3.5822278E-1,-2.9814768E-1,-2.0190966E-1,-3.8917577E-1,1.03642106E-1,1.9399886E-1,-1.2994281E0],"split_indices":[5,81,125,110,221,5,194,0,0,0,0,0,0,0,0],"split_type":[0,0,0,0,0,0,0,0,0,0,0,0,0,0,0],"sum_hessian":[1.078174E5,2.2065846E4,8.5751555E4,5.160277E3,1.6905568E4,5.3185405E3,8.043301E4,4.592596E3,5.676803E2,1.612088E4,7.846888E2,1.2515409E3,4.0669995E3,8.039232E4,4.0687946E1],"tree_param":{"num_deleted":"0","num_feature":"234","num_nodes":"15","size_leaf_vector":"1"}},{"base_weights":[4.8435903E-1,9.8146194E-1,2.5568534E-2,9.9491584E-1,-1.0677482E0,4.3361095E-1,-1.2778002E0,-4.6911445E-2,2.0169322E-1,-3.443097E-2,-4.3017498E-1,1.353514E-1,-2.319561E-2,-1.8347818E-1,-3.7598407E-1],"categories":[],"categories_nodes":[],"categories_segments":[],"categories_sizes":[],"default_left":[0,0,0,0,0,0,0,0,0,0,0,0,0,0,0],"id":5,"left_children":[1,3,5,7,9,11,13,-1,-1,-1,-1,-1,-1,-1,-1],"loss_changes":[2.1241434E4,1.2377422E3,2.5764957E4,7.411719E2,2.8304852E2,4.9307607E3,2.497711E3,0E0,0E0,0E0,0E0,0E0,0E0,0E0,0E0],"parents":[2147483647,0,0,1,1,2,2,3,3,4,4,5,5,6,6],"right_children":[2,4,6,8,10,12,14,-1,-1,-1,-1,-1,-1,-1,-1],"split_conditions":[-4.3874547E-2,1.0080864E0,7.417335E0,-1.6592547E-1,8.306271E0,-2.724681E0,9.775898E0,-4.6911445E-2,2.0169322E-1,-3.443097E-2,-4.3017498E-1,1.353514E-1,-2.319561E-2,-1.8347818E-1,-3.7598407E-1],"split_indices":[72,120,4,78,4,59,4,0,0,0,0,0,0,0,0],"split_type":[0,0,0,0,0,0,0,0,0,0,0,0,0,0,0],"sum_hessian":[9.313318E4,4.4697355E4,4.843583E4,4.4408414E4,2.8893835E2,3.6890137E4,1.154569E4,4.8312836E2,4.392529E4,1.6138373E2,1.2755461E2,2.5574594E4,1.1315543E4,7.230523E3,4.3151675E3],"tree_param":{"num_deleted":"0","num_feature":"234","num_nodes":"15","size_leaf_vector":"1"}},{"base_weights":[4.437823E-1,-8.3104604E-1,8.789609E-1,5.0113785E-1,-1.3404802E0,9.3151426E-1,-6.8596506E-1,1.6345921E-1,-2.916325E-1,-1.5595667E-1,-2.9155183E-1,1.901605E-1,-1.8046843E-1,1.5337285E-1,-7.149603E-1],"categories":[],"categories_nodes":[],"categories_segments":[],"categories_sizes":[],"default_left":[0,0,0,0,0,0,0,0,0,0,0,0,0,0,0],"id":6,"left_children":[1,3,5,7,9,11,13,-1,-1,-1,-1,-1,-1,-1,-1],"loss_changes":[4.6420656E4,1.4455541E4,5.133285E3,3.6571055E3,1.0071426E3,2.1390898E3,8.531868E3,0E0,0E0,0E0,0E0,0E0,0E0,0E0,0E0],"parents":[2147483647,0,0,1,1,2,2,3,3,4,4,5,5,6,6],"right_children":[2,4,6,8,10,12,14,-1,-1,-1,-1,-1,-1,-1,-1],"split_conditions":[5.2950406E0,-4.340097E-2,1.0491553E1,7.0342946E0,5.18754E0,-2.2710646E-2,-4.3098718E-2,1.6345921E-1,-2.916325E-1,-1.5595667E-1,-2.9155183E-1,1.901605E-1,-1.8046843E-1,1.5337285E-1,-7.149603E-1],"split_indices":[5,81,4,4,4,81,81,0,0,0,0,0,0,0,0],"split_type":[0,0,0,0,0,0,0,0,0,0,0,0,0,0,0],"sum_hessian":[8.366269E4,2.1290049E4,6.2372633E4,5.889289E3,1.5400761E4,6.0348113E4,2.0245232E3,5.073569E3,8.1572E2,2.6708467E3,1.2729914E4,5.9722426E4,6.256872E2,1.349488E3,6.750351E2],"tree_param":{"num_deleted":"0","num_feature":"234","num_nodes":"15","size_leaf_vector":"1"}},{"base_weights":[4.2348227E-1,-7.337391E-1,8.593663E-1,5.1031774E-1,-1.2495699E0,-2.3849659E-1,9.1325927E-1,1.404728E-1,-3.1749827E-1,-2.6677725E-1,-1.1311499E-1,-2.4314463E-1,8.202025E-2,8.459627E-2,1.9088385E-1],"categories":[],"categories_nodes":[],"categories_segments":[],"categories_sizes":[],"default_left":[0,0,0,0,0,0,0,0,0,0,0,0,0,0,0],"id":7,"left_children":[1,3,5,7,9,11,13,-1,-1,-1,-1,-1,-1,-1,-1],"loss_changes":[3.636324E4,1.2661387E4,3.0993555E3,2.3361426E3,8.0028125E2,1.558031E3,1.00510156E3,0E0,0E0,0E0,0E0,0E0,0E0,0E0,0E0],"parents":[2147483647,0,0,1,1,2,2,3,3,4,4,5,5,6,6],"right_children":[2,4,6,8,10,12,14,-1,-1,-1,-1,-1,-1,-1,-1],"split_conditions":[5.4593744E0,-4.326152E-2,-3.9151054E-2,-2.4315904E-1,-5.223235E-2,7.7991624E0,6.0840144E0,1.404728E-1,-3.1749827E-1,-2.6677725E-1,-1.1311499E-1,-2.4314463E-1,8.202025E-2,8.459627E-2,1.9088385E-1],"split_indices":[5,81,125,114,149,5,5,0,0,0,0,0,0,0,0],"split_type":[0,0,0,0,0,0,0,0,0,0,0,0,0,0,0],"sum_hessian":[7.207874E4,1.9720217E4,5.2358523E4,5.780041E3,1.3940175E4,2.4490728E3,4.9909453E4,5.2983696E3,4.8167145E2,1.2405989E4,1.5341853E3,9.7533765E2,1.4737351E3,3.870048E3,4.6039406E4],"tree_param":{"num_deleted":"0","num_feature":"234","num_nodes":"15","size_leaf_vector":"1"}},{"base_weights":[3.9650917E-1,-5.9123445E-1,8.490149E-1,5.514665E-1,-1.1355752E0,8.417076E-2,9.269071E-1,-1.299979E-1,1.7678681E-1,-2.7352008E-1,-1.2173887E-1,-5.633063E-1,4.906911E-2,1.864513E-1,-6.223989E-1],"categories":[],"categories_nodes":[],"categories_segments":[],"categories_sizes":[],"default_left":[0,0,0,0,0,0,0,0,0,0,0,0,0,0,0],"id":8,"left_children":[1,3,5,7,9,11,13,-1,-1,-1,-1,-1,-1,-1,-1],"loss_changes":[2.7794277E4,1.2156686E4,2.5401465E3,2.522473E3,1.61375E3,1.848626E3,8.505078E2,0E0,0E0,0E0,0E0,0E0,0E0,0E0,0E0],"parents":[2147483647,0,0,1,1,2,2,3,3,4,4,5,5,6,6],"right_children":[2,4,6,8,10,12,14,-1,-1,-1,-1,-1,-1,-1,-1],"split_conditions":[5.7649784E0,-4.3098718E-2,-3.9151017E-2,3.2607498E0,-5.8999833E-2,-6.915467E0,2.4902003E-1,-1.299979E-1,1.7678681E-1,-2.7352008E-1,-1.2173887E-1,-5.633063E-1,4.906911E-2,1.864513E-1,-6.223989E-1],"split_indices":[5,81,125,5,149,36,128,0,0,0,0,0,0,0,0],"split_type":[0,0,0,0,0,0,0,0,0,0,0,0,0,0,0],"sum_hessian":[6.2174535E4,1.9533797E4,4.264074E4,6.302693E3,1.3231104E4,3.9422703E3,3.869847E4,1.3649656E3,4.937727E3,9.180202E3,4.0509011E3,2.031492E2,3.739121E3,3.8651145E4,4.7321754E1],"tree_param":{"num_deleted":"0","num_feature":"234","num_nodes":"15","size_leaf_vector":"1"}},{"base_weights":[3.7518597E-1,-5.012396E-1,8.3030087E-1,5.334474E-1,-1.0129412E0,1.6310658E-1,9.16278E-1,-8.464607E-2,1.7007701E-1,-2.5776696E-1,-9.56008E-2,-4.1714236E-1,6.6675045E-2,1.8515907E-1,-3.0703974E-1],"categories":[],"categories_nodes":[],"categories_segments":[],"categories_sizes":[],"default_left":[0,0,0,0,0,0,0,0,0,0,0,0,0,0,0],"id":9,"left_children":[1,3,5,7,9,11,13,-1,-1,-1,-1,-1,-1,-1,-1],"loss_changes":[2.159436E4,9.800482E3,2.0431484E3,1.8594973E3,1.8244121E3,1.5631677E3,7.434785E2,0E0,0E0,0E0,0E0,0E0,0E0,0E0,0E0],"parents":[2147483647,0,0,1,1,2,2,3,3,4,4,5,5,6,6],"right_children":[2,4,6,8,10,12,14,-1,-1,-1,-1,-1,-1,-1,-1],"split_conditions":[5.951616E0,-4.3988794E-2,-3.9151005E-2,3.4581268E0,-9.539683E-2,-6.1163945E0,6.2897915E-1,-8.464607E-2,1.7007701E-1,-2.5776696E-1,-9.56008E-2,-4.1714236E-1,6.6675045E-2,1.8515907E-1,-3.0703974E-1],"split_indices":[5,72,125,5,143,46,194,0,0,0,0,0,0,0,0],"split_type":[0,0,0,0,0,0,0,0,0,0,0,0,0,0,0],"sum_hessian":[5.4127957E4,1.8500459E4,3.56275E4,6.121686E3,1.2378772E4,4.068788E3,3.155871E4,1.5228782E3,4.5988076E3,8.1619946E3,4.216778E3,2.823833E2,3.7864048E3,3.1439805E4,1.1890616E2],"tree_param":{"num_deleted":"0","num_feature":"234","num_nodes":"15","size_leaf_vector":"1"}},{"base_weights":[3.5434604E-1,-8.7258613E-1,6.3914186E-1,1.3026674E-1,-1.1385192E0,7.77858E-1,-5.3676337E-1,-1.9992006E-1,1.733422E-1,-1.2544365E-1,-2.3507862E-1,5.349345E-2,1.8749179E-1,-6.0050005E-1,9.27669E-2],"categories":[],"categories_nodes":[],"categories_segments":[],"categories_sizes":[],"default_left":[0,0,0,0,0,0,0,0,0,0,0,0,0,0,0],"id":10,"left_children":[1,3,5,7,9,11,13,-1,-1,-1,-1,-1,-1,-1,-1],"loss_changes":[1.6609207E4,2.3891558E3,6.2943047E3,1.569813E3,1.2959766E2,2.8094824E3,1.0056677E4,0E0,0E0,0E0,0E0,0E0,0E0,0E0,0E0],"parents":[2147483647,0,0,1,1,2,2,3,3,4,4,5,5,6,6],"right_children":[2,4,6,8,10,12,14,-1,-1,-1,-1,-1,-1,-1,-1],"split_conditions":[4.2160945E0,4.8265905E0,8.347154E0,-1.666869E-1,-8.749016E-2,6.0840144E0,8.283829E0,-1.9992006E-1,1.733422E-1,-1.2544365E-1,-2.3507862E-1,5.349345E-2,1.8749179E-1,-6.0050005E-1,9.27669E-2],"split_indices":[5,4,4,221,228,5,5,0,0,0,0,0,0,0,0],"split_type":[0,0,0,0,0,0,0,0,0,0,0,0,0,0,0],"sum_hessian":[4.752003E4,8.950332E3,3.85697E4,1.876414E3,7.073918E3,3.4501492E4,4.0682065E3,7.396721E2,1.1367418E3,4.8207806E2,6.59184E3,8.222049E3,2.6279445E4,1.1714764E3,2.8967302E3],"tree_param":{"num_deleted":"0","num_feature":"234","num_nodes":"15","size_leaf_vector":"1"}},{"base_weights":[3.307786E-1,-3.4542233E-1,7.871828E-1,3.451597E-1,-1.2772601E0,9.00086E-1,-3.9129728E-1,-5.122895E-2,1.5468465E-1,1.9482557E-2,-2.934886E-1,1.8374167E-1,-4.5364508E-1,-5.964215E-1,6.505766E-2],"categories":[],"categories_nodes":[],"categories_segments":[],"categories_sizes":[],"default_left":[0,0,0,0,0,0,0,0,0,0,0,0,0,0,0],"id":11,"left_children":[1,3,5,7,9,11,13,-1,-1,-1,-1,-1,-1,-1,-1],"loss_changes":[1.2864684E4,1.0812669E4,3.3129727E3,2.4867039E3,1.8705713E3,1.3503086E3,4.0507456E3,0E0,0E0,0E0,0E0,0E0,0E0,0E0,0E0],"parents":[2147483647,0,0,1,1,2,2,3,3,4,4,5,5,6,6],"right_children":[2,4,6,8,10,12,14,-1,-1,-1,-1,-1,-1,-1,-1],"split_conditions":[6.1938567E0,6.067236E0,9.180471E0,-2.1467134E-1,-8.749016E-2,7.522561E-2,9.114519E0,-5.122895E-2,1.5468465E-1,1.9482557E-2,-2.934886E-1,1.8374167E-1,-4.5364508E-1,-5.964215E-1,6.505766E-2],"split_indices":[5,4,4,221,228,72,5,0,0,0,0,0,0,0,0],"split_type":[0,0,0,0,0,0,0,0,0,0,0,0,0,0,0],"sum_hessian":[4.167487E4,1.6794062E4,2.4880809E4,9.647427E3,7.1466367E3,2.2706682E4,2.1741267E3,4.0137236E3,5.6337026E3,8.6879016E2,6.277846E3,2.2577559E4,1.2912231E2,4.6765503E2,1.7064717E3],"tree_param":{"num_deleted":"0","num_feature":"234","num_nodes":"15","size_leaf_vector":"1"}},{"base_weights":[3.0533594E-1,-8.1302655E-1,5.4909825E-1,1.667085E-1,-1.0437942E0,7.746841E-1,-2.0586993E-1,1.4602509E-1,-2.1100123E-1,-2.253917E-1,-1.21157885E-1,-1.0870033E-1,1.6939192E-1,-4.009801E-1,1.00895934E-1],"categories":[],"categories_nodes":[],"categories_segments":[],"categories_sizes":[],"default_left":[0,0,0,0,0,0,0,0,0,0,0,0,0,0,0],"id":12,"left_children":[1,3,5,7,9,11,13,-1,-1,-1,-1,-1,-1,-1,-1],"loss_changes":[1.0029704E4,1.4896489E3,5.1447666E3,8.707621E2,1.905664E2,2.2179746E3,8.889941E3,0E0,0E0,0E0,0E0,0E0,0E0,0E0,0E0],"parents":[2147483647,0,0,1,1,2,2,3,3,4,4,5,5,6,6],"right_children":[2,4,6,8,10,12,14,-1,-1,-1,-1,-1,-1,-1,-1],"split_conditions":[4.148563E0,4.551302E0,7.111863E0,-1.3973092E-1,3.3938427E0,-2.9389653E-1,7.445421E0,1.4602509E-1,-2.1100123E-1,-2.253917E-1,-1.21157885E-1,-1.0870033E-1,1.6939192E-1,-4.009801E-1,1.00895934E-1],"split_indices":[5,4,4,95,5,155,5,0,0,0,0,0,0,0,0],"split_type":[0,0,0,0,0,0,0,0,0,0,0,0,0,0,0],"sum_hessian":[3.6777684E4,6.579476E3,3.0198209E4,1.2544789E3,5.324997E3,2.3250824E4,6.9473843E3,8.5997754E2,3.9450128E2,4.468471E3,8.565257E2,1.2068011E3,2.2044023E4,1.96411E3,4.9832744E3],"tree_param":{"num_deleted":"0","num_feature":"234","num_nodes":"15","size_leaf_vector":"1"}},{"base_weights":[2.8714415E-1,-2.9500428E-1,7.250196E-1,4.3277428E-1,-9.9802554E-1,8.134255E-1,-9.118456E-1,1.12639956E-1,-2.3996766E-1,8.179474E-3,-2.8350824E-1,1.6991238E-1,-2.2087038E-1,7.607459E-2,-4.061663E-1],"categories":[],"categories_nodes":[],"categories_segments":[],"categories_sizes":[],"default_left":[0,0,0,0,0,0,0,0,0,0,0,0,0,0,0],"id":13,"left_children":[1,3,5,7,9,11,13,-1,-1,-1,-1,-1,-1,-1,-1],"loss_changes":[8.327247E3,7.178079E3,2.7015186E3,1.4714196E3,3.1103877E3,1.2306455E3,1.3886998E3,0E0,0E0,0E0,0E0,0E0,0E0,0E0,0E0],"parents":[2147483647,0,0,1,1,2,2,3,3,4,4,5,5,6,6],"right_children":[2,4,6,8,10,12,14,-1,-1,-1,-1,-1,-1,-1,-1],"split_conditions":[6.2672076E0,5.565245E0,1.1662488E1,-1.1593208E-1,-4.3874547E-2,-2.4024522E-2,-4.3988794E-2,1.12639956E-1,-2.3996766E-1,8.179474E-3,-2.8350824E-1,1.6991238E-1,-2.2087038E-1,7.607459E-2,-4.061663E-1],"split_indices":[5,4,4,68,72,72,72,0,0,0,0,0,0,0,0],"split_type":[0,0,0,0,0,0,0,0,0,0,0,0,0,0,0],"sum_hessian":[3.2658234E4,1.4020115E4,1.863812E4,6.889636E3,7.130479E3,1.7685514E4,9.526053E2,6.3830464E3,5.0658975E2,2.0522915E3,5.0781875E3,1.7361215E4,3.242974E2,4.4357285E2,5.0903244E2],"tree_param":{"num_deleted":"0","num_feature":"234","num_nodes":"15","size_leaf_vector":"1"}},{"base_weights":[2.6164111E-1,-2.571465E-1,6.799053E-1,2.3247686E-1,-1.103792E0,8.517749E-1,-2.960317E-1,-1.4866303E-1,1.0074382E-1,3.4950506E-2,-2.7158067E-1,-8.657279E-3,1.8341896E-1,8.5645E-3,-5.596739E-1],"categories":[],"categories_nodes":[],"categories_segments":[],"categories_sizes":[],"default_left":[0,0,0,0,0,0,0,0,0,0,0,0,0,0,0],"id":14,"left_children":[1,3,5,7,9,11,13,-1,-1,-1,-1,-1,-1,-1,-1],"loss_changes":[6.3188975E3,5.390349E3,2.7054282E3,2.182964E3,1.5491846E3,8.0177637E2,2.0508296E3,0E0,0E0,0E0,0E0,0E0,0E0,0E0,0E0],"parents":[2147483647,0,0,1,1,2,2,3,3,4,4,5,5,6,6],"right_children":[2,4,6,8,10,12,14,-1,-1,-1,-1,-1,-1,-1,-1],"split_conditions":[6.2672076E0,6.221984E0,8.618919E0,-2.9383475E-1,-8.749016E-2,-3.914635E-2,-1.5565322E-1,-1.4866303E-1,1.0074382E-1,3.4950506E-2,-2.7158067E-1,-8.657279E-3,1.8341896E-1,8.5645E-3,-5.596739E-1],"split_indices":[5,4,4,155,228,131,98,0,0,0,0,0,0,0,0],"split_type":[0,0,0,0,0,0,0,0,0,0,0,0,0,0,0],"sum_hessian":[2.9111424E4,1.2994981E4,1.6116441E4,8.235703E3,4.759279E3,1.3703836E4,2.4126055E3,1.7893735E3,6.4463296E3,7.892728E2,3.970006E3,9.320716E2,1.2771765E4,2.1291597E3,2.834458E2],"tree_param":{"num_deleted":"0","num_feature":"234","num_nodes":"15","size_leaf_vector":"1"}},{"base_weights":[2.3550874E-1,7.652252E-1,-1.5744542E-1,-4.5933884E-1,9.032244E-1,2.9949668E-1,-9.048525E-1,1.057742E-1,-2.8075027E-1,1.8818367E-1,-7.030492E-2,-1.0013896E-1,1.5658213E-1,-3.253574E-1,2.926132E-2],"categories":[],"categories_nodes":[],"categories_segments":[],"categories_sizes":[],"default_left":[0,0,0,0,0,0,0,0,0,0,0,0,0,0,0],"id":15,"left_children":[1,3,5,7,9,11,13,-1,-1,-1,-1,-1,-1,-1,-1],"loss_changes":[5.446651E3,1.8852563E3,5.1326665E3,1.0601311E3,4.7546777E2,3.6102144E3,4.328279E3,0E0,0E0,0E0,0E0,0E0,0E0,0E0,0E0],"parents":[2147483647,0,0,1,1,2,2,3,3,4,4,5,5,6,6],"right_children":[2,4,6,8,10,12,14,-1,-1,-1,-1,-1,-1,-1,-1],"split_conditions":[-4.3874547E-2,3.5821438E0,6.404409E0,5.0169597E0,-2.3459345E-1,5.5607314E0,7.635606E0,1.057742E-1,-2.8075027E-1,1.8818367E-1,-7.030492E-2,-1.0013896E-1,1.5658213E-1,-3.253574E-1,2.926132E-2],"split_indices":[72,5,4,4,110,5,5,0,0,0,0,0,0,0,0],"split_type":[0,0,0,0,0,0,0,0,0,0,0,0,0,0,0],"sum_hessian":[2.6158229E4,1.1138562E4,1.5019667E4,1.1268513E3,1.001171E4,9.322832E3,5.696835E3,5.5168054E2,5.751708E2,9.721011E3,2.9069885E2,3.5108926E3,5.81194E3,3.3757395E3,2.3210955E3],"tree_param":{"num_deleted":"0","num_feature":"234","num_nodes":"15","size_leaf_vector":"1"}},{"base_weights":[2.1685615E-1,4.3739292E-1,-5.9805375E-1,-5.3215015E-1,6.259199E-1,-1.0434189E0,1.671025E-1,3.6289807E-2,-1.8777214E-1,-9.53718E-3,1.5602563E-1,-7.4812345E-2,-3.1802166E-1,1.359679E-1,-2.3096576E-1],"categories":[],"categories_nodes":[],"categories_segments":[],"categories_sizes":[],"default_left":[0,0,0,0,0,0,0,0,0,0,0,0,0,0,0],"id":16,"left_children":[1,3,5,7,9,11,13,-1,-1,-1,-1,-1,-1,-1,-1],"loss_changes":[4.2154536E3,3.3754292E3,1.7035709E3,8.737566E2,1.605667E3,1.1527598E3,1.2526813E3,0E0,0E0,0E0,0E0,0E0,0E0,0E0,0E0],"parents":[2147483647,0,0,1,1,2,2,3,3,4,4,5,5,6,6],"right_children":[2,4,6,8,10,12,14,-1,-1,-1,-1,-1,-1,-1,-1],"split_conditions":[-8.467423E-2,4.4099894E0,7.1934805E0,4.9675603E0,-3.9150678E-2,5.626828E0,7.9433894E0,3.6289807E-2,-1.8777214E-1,-9.53718E-3,1.5602563E-1,-7.4812345E-2,-3.1802166E-1,1.359679E-1,-2.3096576E-1],"split_indices":[229,5,5,4,125,4,4,0,0,0,0,0,0,0,0],"split_type":[0,0,0,0,0,0,0,0,0,0,0,0,0,0,0],"sum_hessian":[2.3443803E4,1.8452496E4,4.9913076E3,3.0023877E3,1.5450107E4,3.1538796E3,1.8374281E3,1.090885E3,1.9115028E3,2.8786252E3,1.2571482E4,1.4217351E3,1.7321445E3,1.3257242E3,5.1170383E2],"tree_param":{"num_deleted":"0","num_feature":"234","num_nodes":"15","size_leaf_vector":"1"}},{"base_weights":[1.994868E-1,7.061611E-1,-1.3369238E-1,8.2494384E-1,-4.7152936E-1,1.8763374E-1,-9.108546E-1,-3.6891622E-3,1.8331791E-1,-3.157014E-1,6.5197855E-2,-9.187538E-2,1.4456345E-1,-3.3490837E-1,8.034157E-3],"categories":[],"categories_nodes":[],"categories_segments":[],"categories_sizes":[],"default_left":[0,0,0,0,0,0,0,0,0,0,0,0,0,0,0],"id":17,"left_children":[1,3,5,7,9,11,13,-1,-1,-1,-1,-1,-1,-1,-1],"loss_changes":[3.6155835E3,1.1905195E3,3.2281455E3,5.968579E2,6.92663E2,3.1690188E3,2.7467332E3,0E0,0E0,0E0,0E0,0E0,0E0,0E0,0E0],"parents":[2147483647,0,0,1,1,2,2,3,3,4,4,5,5,6,6],"right_children":[2,4,6,8,10,12,14,-1,-1,-1,-1,-1,-1,-1,-1],"split_conditions":[-4.3874547E-2,-3.761438E-1,6.9597955E0,3.1994617E0,5.814485E0,5.8606796E0,7.870772E0,-3.6891622E-3,1.8331791E-1,-3.157014E-1,6.5197855E-2,-9.187538E-2,1.4456345E-1,-3.3490837E-1,8.034157E-3],"split_indices":[72,122,4,5,5,5,5,0,0,0,0,0,0,0,0],"split_type":[0,0,0,0,0,0,0,0,0,0,0,0,0,0,0],"sum_hessian":[2.1409506E4,8.491287E3,1.2918219E4,7.714754E3,7.7653314E2,9.142017E3,3.776202E3,7.564316E2,6.9583223E3,3.231798E2,4.5335333E2,4.13886E3,5.003157E3,2.0923308E3,1.683871E3],"tree_param":{"num_deleted":"0","num_feature":"234","num_nodes":"15","size_leaf_vector":"1"}},{"base_weights":[1.8357012E-1,-8.198086E-1,3.4891927E-1,4.834479E-1,-1.0892673E0,-6.0586464E-1,4.8313192E-1,-3.9428607E-1,1.3240384E-1,-4.6686718E-1,-1.8796188E-1,-2.4670875E-1,-5.4363895E-2,1.1708802E-1,-1.24487415E-1],"categories":[],"categories_nodes":[],"categories_segments":[],"categories_sizes":[],"default_left":[0,0,0,0,0,0,0,0,0,0,0,0,0,0,0],"id":18,"left_children":[1,3,5,7,9,11,13,-1,-1,-1,-1,-1,-1,-1,-1],"loss_changes":[3.2501667E3,9.760796E2,2.1562007E3,2.1606848E2,4.164214E2,4.331371E2,1.6696709E3,0E0,0E0,0E0,0E0,0E0,0E0,0E0,0E0],"parents":[2147483647,0,0,1,1,2,2,3,3,4,4,5,5,6,6],"right_children":[2,4,6,8,10,12,14,-1,-1,-1,-1,-1,-1,-1,-1],"split_conditions":[-1.6616978E-1,-8.749016E-2,-1.2432331E-1,-1.7289536E-1,-7.2068244E-1,-2.6375154E-1,-1.3848418E-1,-3.9428607E-1,1.3240384E-1,-4.6686718E-1,-1.8796188E-1,-2.4670875E-1,-5.4363895E-2,1.1708802E-1,-1.24487415E-1],"split_indices":[209,228,197,126,158,146,68,0,0,0,0,0,0,0,0],"split_type":[0,0,0,0,0,0,0,0,0,0,0,0,0,0,0],"sum_hessian":[1.9576861E4,2.7668074E3,1.6810053E4,4.733026E2,2.293505E3,2.0694863E3,1.4740566E4,2.8652124E1,4.4465048E2,2.3790004E2,2.0556047E3,7.1403467E2,1.3554517E3,1.3494265E4,1.2463021E3],"tree_param":{"num_deleted":"0","num_feature":"234","num_nodes":"15","size_leaf_vector":"1"}},{"base_weights":[1.6110088E-1,-2.0207854E-1,5.796961E-1,-7.781115E-1,3.3690834E-1,-4.4548094E-1,8.1824404E-1,-5.554793E-2,-3.1927824E-1,1.3866441E-1,-9.8140724E-2,6.277435E-2,-2.3631302E-1,1.7323774E-1,-3.9839134E-1],"categories":[],"categories_nodes":[],"categories_segments":[],"categories_sizes":[],"default_left":[0,0,0,0,0,0,0,0,0,0,0,0,0,0,0],"id":19,"left_children":[1,3,5,7,9,11,13,-1,-1,-1,-1,-1,-1,-1,-1],"loss_changes":[2.8212068E3,3.0868015E3,2.1100464E3,1.9651528E3,1.5171162E3,9.132605E2,9.509966E2,0E0,0E0,0E0,0E0,0E0,0E0,0E0,0E0],"parents":[2147483647,0,0,1,1,2,2,3,3,4,4,5,5,6,6],"right_children":[2,4,6,8,10,12,14,-1,-1,-1,-1,-1,-1,-1,-1],"split_conditions":[-9.539683E-2,6.691947E0,3.9582796E0,6.1858063E0,7.9785395E0,-2.3935056E-1,1.3441547E1,-5.554793E-2,-3.1927824E-1,1.3866441E-1,-9.8140724E-2,6.277435E-2,-2.3631302E-1,1.7323774E-1,-3.9839134E-1],"split_indices":[143,5,5,4,4,108,4,0,0,0,0,0,0,0,0],"split_type":[0,0,0,0,0,0,0,0,0,0,0,0,0,0,0],"sum_hessian":[1.8548395E4,9.932853E3,8.615541E3,4.800436E3,5.132416E3,1.6254204E3,6.990121E3,2.9831074E3,1.8173285E3,3.5881152E3,1.5443009E3,8.014094E2,8.24011E2,6.8762993E3,1.13821785E2],"tree_param":{"num_deleted":"0","num_feature":"234","num_nodes":"15","size_leaf_vector":"1"}},{"base_weights":[1.4166304E-1,-1.0463746E0,2.5240928E-1,-7.0870036E-1,-1.6607952E0,-6.582629E-1,3.8627386E-1,-3.6778057E-1,-1.0655033E-1,-4.6637067E-1,-2.4753869E-1,-4.9165152E-2,-2.5226447E-1,-3.723448E-2,1.2248254E-1],"categories":[],"categories_nodes":[],"categories_segments":[],"categories_sizes":[],"default_left":[0,0,0,0,0,0,0,0,0,0,0,0,0,0,0],"id":20,"left_children":[1,3,5,7,9,11,13,-1,-1,-1,-1,-1,-1,-1,-1],"loss_changes":[2.2414524E3,2.952849E2,1.9004211E3,1.8305048E2,1.3041516E2,4.9532452E2,1.7593044E3,0E0,0E0,0E0,0E0,0E0,0E0,0E0,0E0],"parents":[2147483647,0,0,1,1,2,2,3,3,4,4,5,5,6,6],"right_children":[2,4,6,8,10,12,14,-1,-1,-1,-1,-1,-1,-1,-1],"split_conditions":[-2.9389653E-1,-1.3972835E-1,3.7086039E0,-4.206142E0,-2.8489618E0,-4.6307194E-1,-3.9145947E-2,-3.6778057E-1,-1.0655033E-1,-4.6637067E-1,-2.4753869E-1,-4.9165152E-2,-2.5226447E-1,-3.723448E-2,1.2248254E-1],"split_indices":[155,95,5,27,15,122,131,0,0,0,0,0,0,0,0],"split_type":[0,0,0,0,0,0,0,0,0,0,0,0,0,0,0],"sum_hessian":[1.7021676E4,1.4477455E3,1.5573931E4,9.413351E2,5.0641034E2,1.9933005E3,1.358063E4,1.2036275E2,8.2097235E2,1.870104E2,3.193999E2,1.1880128E3,8.052876E2,3.8458113E3,9.734818E3],"tree_param":{"num_deleted":"0","num_feature":"234","num_nodes":"15","size_leaf_vector":"1"}},{"base_weights":[1.2669875E-1,-5.9259975E-1,3.0461216E-1,-4.0271333E-1,-1.6876475E0,-1.2507416E0,3.7940085E-1,-1.6933613E-1,5.58671E-3,-4.1854754E-1,-1.5094243E-1,-4.681781E-1,-1.750137E-1,1.01641476E-1,-6.2271398E-2],"categories":[],"categories_nodes":[],"categories_segments":[],"categories_sizes":[],"default_left":[0,0,0,0,0,0,0,0,0,0,0,0,0,0,0],"id":21,"left_children":[1,3,5,7,9,11,13,-1,-1,-1,-1,-1,-1,-1,-1],"loss_changes":[2.0489092E3,6.5659546E2,1.4951292E3,5.1880896E2,1.6852014E2,2.310199E2,1.0906312E3,0E0,0E0,0E0,0E0,0E0,0E0,0E0,0E0],"parents":[2147483647,0,0,1,1,2,2,3,3,4,4,5,5,6,6],"right_children":[2,4,6,8,10,12,14,-1,-1,-1,-1,-1,-1,-1,-1],"split_conditions":[-1.6319391E-1,-1.4072987E-1,-1.7615296E-1,-1.7730132E-1,-4.673275E-1,-1.7154418E-1,1.3012809E0,-1.6933613E-1,5.58671E-3,-4.1854754E-1,-1.5094243E-1,-4.681781E-1,-1.750137E-1,1.01641476E-1,-6.2271398E-2],"split_indices":[209,68,86,69,122,69,214,0,0,0,0,0,0,0,0],"split_type":[0,0,0,0,0,0,0,0,0,0,0,0,0,0,0],"sum_hessian":[1.5998671E4,3.1700479E3,1.2828623E4,2.707487E3,4.625609E2,5.8489124E2,1.2243731E4,1.3308619E3,1.3766251E3,3.181108E2,1.444501E2,1.4312909E2,4.4176212E2,1.0320686E4,1.9230458E3],"tree_param":{"num_deleted":"0","num_feature":"234","num_nodes":"15","size_leaf_vector":"1"}},{"base_weights":[1.05036184E-1,-1.9420868E-1,5.4268533E-1,1.6791978E-1,-1.1060637E0,8.07149E-1,-2.8015807E-1,-2.548614E-1,5.9725612E-2,-6.1114144E-2,-2.9819947E-1,1.7164944E-1,-2.3711629E-1,-3.1421447E-1,4.833442E-2],"categories":[],"categories_nodes":[],"categories_segments":[],"categories_sizes":[],"default_left":[0,0,0,0,0,0,0,0,0,0,0,0,0,0,0],"id":22,"left_children":[1,3,5,7,9,11,13,-1,-1,-1,-1,-1,-1,-1,-1],"loss_changes":[2.0275789E3,3.0375815E3,1.3692589E3,1.2433805E3,8.032141E2,4.8964233E2,1.0345408E3,0E0,0E0,0E0,0E0,0E0,0E0,0E0,0E0],"parents":[2147483647,0,0,1,1,2,2,3,3,4,4,5,5,6,6],"right_children":[2,4,6,8,10,12,14,-1,-1,-1,-1,-1,-1,-1,-1],"split_conditions":[7.0979095E0,6.404409E0,8.769805E0,-1.609327E-1,-4.3874547E-2,1.5675528E-2,9.628684E0,-2.548614E-1,5.9725612E-2,-6.1114144E-2,-2.9819947E-1,1.7164944E-1,-2.3711629E-1,-3.1421447E-1,4.833442E-2],"split_indices":[5,4,4,128,72,72,5,0,0,0,0,0,0,0,0],"split_type":[0,0,0,0,0,0,0,0,0,0,0,0,0,0,0],"sum_hessian":[1.5472638E4,9.190879E3,6.2817583E3,6.5812227E3,2.6096562E3,4.754022E3,1.5277363E3,5.431898E2,6.0380327E3,8.504085E2,1.7592478E3,4.6379897E3,1.16032104E2,4.3694672E2,1.0907897E3],"tree_param":{"num_deleted":"0","num_feature":"234","num_nodes":"15","size_leaf_vector":"1"}},{"base_weights":[9.0883784E-2,-2.8700075E-1,4.0072143E-1,5.5091705E-2,-8.9946914E-1,-8.282063E-1,5.306752E-1,3.0816743E-2,-3.8795623E-1,-5.7425212E-2,-2.8265578E-1,1.923748E-1,-2.0814815E-1,1.1906681E-1,-1.3206594E-1],"categories":[],"categories_nodes":[],"categories_segments":[],"categories_sizes":[],"default_left":[0,0,0,0,0,0,0,0,0,0,0,0,0,0,0],"id":23,"left_children":[1,3,5,7,9,11,13,-1,-1,-1,-1,-1,-1,-1,-1],"loss_changes":[1.7149026E3,1.3830327E3,1.2873927E3,8.38399E2,7.4203613E2,2.9852942E2,5.626675E2,0E0,0E0,0E0,0E0,0E0,0E0,0E0,0E0],"parents":[2147483647,0,0,1,1,2,2,3,3,4,4,5,5,6,6],"right_children":[2,4,6,8,10,12,14,-1,-1,-1,-1,-1,-1,-1,-1],"split_conditions":[-2.1467134E-1,2.4112828E-1,-1.6093278E-1,-2.4024522E-2,-9.752359E-2,-1.9314311E-1,-6.5346666E-2,3.0816743E-2,-3.8795623E-1,-5.7425212E-2,-2.8265578E-1,1.923748E-1,-2.0814815E-1,1.1906681E-1,-1.3206594E-1],"split_indices":[221,225,128,72,230,221,119,0,0,0,0,0,0,0,0],"split_type":[0,0,0,0,0,0,0,0,0,0,0,0,0,0,0],"sum_hessian":[1.4636905E4,6.5943467E3,8.042558E3,4.2339004E3,2.360446E3,7.664899E2,7.2760684E3,4.038177E3,1.9572343E2,1.0806038E3,1.2798424E3,7.9425575E1,6.8706433E2,6.9038477E3,3.722209E2],"tree_param":{"num_deleted":"0","num_feature":"234","num_nodes":"15","size_leaf_vector":"1"}},{"base_weights":[8.656595E-2,-2.2747216E-1,4.304549E-1,-1.2161376E0,8.377117E-3,-6.2062263E-1,5.676915E-1,-6.2254485E-2,-2.8054985E-1,-1.7211424E-1,3.997099E-2,-2.8014898E-1,-1.3476436E-2,-1.5261827E-1,1.3012677E-1],"categories":[],"categories_nodes":[],"categories_segments":[],"categories_sizes":[],"default_left":[0,0,0,0,0,0,0,0,0,0,0,0,0,0,0],"id":24,"left_children":[1,3,5,7,9,11,13,-1,-1,-1,-1,-1,-1,-1,-1],"loss_changes":[1.5207131E3,1.7165364E3,9.712207E2,2.3706152E2,9.9044037E2,3.3537402E2,6.5893555E2,0E0,0E0,0E0,0E0,0E0,0E0,0E0,0E0],"parents":[2147483647,0,0,1,1,2,2,3,3,4,4,5,5,6,6],"right_children":[2,4,6,8,10,12,14,-1,-1,-1,-1,-1,-1,-1,-1],"split_conditions":[6.5023227E0,-3.3036647E0,-3.915106E-2,-8.749016E-2,-2.6375154E-1,-3.481591E0,-6.667835E0,-6.2254485E-2,-2.8054985E-1,-1.7211424E-1,3.997099E-2,-2.8014898E-1,-1.3476436E-2,-1.5261827E-1,1.3012677E-1],"split_indices":[5,62,125,228,146,28,44,0,0,0,0,0,0,0,0],"split_type":[0,0,0,0,0,0,0,0,0,0,0,0,0,0,0],"sum_hessian":[1.4071706E4,7.35581E3,6.715896E3,1.4128542E3,5.942956E3,7.7349054E2,5.9424053E3,2.4393028E2,1.1689241E3,1.0698519E3,4.873104E3,3.176845E2,4.55806E2,3.4616098E2,5.5962446E3],"tree_param":{"num_deleted":"0","num_feature":"234","num_nodes":"15","size_leaf_vector":"1"}},{"base_weights":[7.713512E-2,2.9235023E-1,-5.050127E-1,4.7018602E-1,-2.7608815E-1,-1.1113893E0,-4.6534367E-2,1.7434318E-1,4.056936E-2,-1.5119495E-3,-2.3813288E-1,1.1096525E-2,-2.9534444E-1,2.6581693E-2,-3.5355237E-1],"categories":[],"categories_nodes":[],"categories_segments":[],"categories_sizes":[],"default_left":[0,0,0,0,0,0,0,0,0,0,0,0,0,0,0],"id":25,"left_children":[1,3,5,7,9,11,13,-1,-1,-1,-1,-1,-1,-1,-1],"loss_changes":[1.6844895E3,9.92877E2,1.00855273E3,8.017599E2,5.749982E2,6.665177E2,6.412644E2,0E0,0E0,0E0,0E0,0E0,0E0,0E0,0E0],"parents":[2147483647,0,0,1,1,2,2,3,3,4,4,5,5,6,6],"right_children":[2,4,6,8,10,12,14,-1,-1,-1,-1,-1,-1,-1,-1],"split_conditions":[7.167267E0,-8.467423E-2,4.70455E-1,-9.752359E-2,-1.5305676E-1,-8.749016E-2,-1.562759E-1,1.7434318E-1,4.056936E-2,-1.5119495E-3,-2.3813288E-1,1.1096525E-2,-2.9534444E-1,2.6581693E-2,-3.5355237E-1],"split_indices":[4,229,70,230,78,228,76,0,0,0,0,0,0,0,0],"split_type":[0,0,0,0,0,0,0,0,0,0,0,0,0,0,0],"sum_hessian":[1.3434324E4,9.810228E3,3.6240967E3,7.47326E3,2.3369673E3,1.5572124E3,2.0668843E3,2.9823076E3,4.490952E3,1.8105292E3,5.264382E2,3.7224146E2,1.184971E3,1.8758749E3,1.9100945E2],"tree_param":{"num_deleted":"0","num_feature":"234","num_nodes":"15","size_leaf_vector":"1"}},{"base_weights":[5.951603E-2,-6.93682E-1,2.0193362E-1,-1.9236578E0,-4.6253967E-1,2.742414E-1,-1.4831753E0,-5.329842E-1,-2.943008E-1,-1.9746608E-1,1.1363445E-3,7.674516E-2,-1.24657355E-1,-3.7733623E-1,-9.340682E-2],"categories":[],"categories_nodes":[],"categories_segments":[],"categories_sizes":[],"default_left":[0,0,0,0,0,0,0,0,0,0,0,0,0,0,0],"id":26,"left_children":[1,3,5,7,9,11,13,-1,-1,-1,-1,-1,-1,-1,-1],"loss_changes":[1.3907383E3,5.814524E2,1.3303118E3,8.8740234E1,4.2821622E2,1.0288252E3,1.795758E2,0E0,0E0,0E0,0E0,0E0,0E0,0E0,0E0],"parents":[2147483647,0,0,1,1,2,2,3,3,4,4,5,5,6,6],"right_children":[2,4,6,8,10,12,14,-1,-1,-1,-1,-1,-1,-1,-1],"split_conditions":[-1.7814277E-1,-1.6351119E-1,-2.4024522E-2,-1.7288396E-1,-2.934831E-1,1.5196996E0,-2.1467134E-1,-5.329842E-1,-2.943008E-1,-1.9746608E-1,1.1363445E-3,7.674516E-2,-1.24657355E-1,-3.7733623E-1,-9.340682E-2],"split_indices":[69,75,72,132,155,231,221,0,0,0,0,0,0,0,0],"split_type":[0,0,0,0,0,0,0,0,0,0,0,0,0,0,0],"sum_hessian":[1.2953934E4,2.056699E3,1.0897234E4,3.1950024E2,1.7371986E3,1.0452945E4,4.4428876E2,1.11695595E2,2.0780464E2,8.166044E2,9.205943E2,9.319132E3,1.1338142E3,3.1487222E2,1.2941656E2],"tree_param":{"num_deleted":"0","num_feature":"234","num_nodes":"15","size_leaf_vector":"1"}},{"base_weights":[4.1354783E-2,-1.9494025E-1,4.604084E-1,-1.1023679E0,6.029263E-3,-5.487256E-1,5.887848E-1,-3.79652E-1,-1.5301411E-1,-1.4333448E-1,3.675413E-2,-3.2584044E-1,5.159579E-2,-6.2102724E-2,1.4074203E-1],"categories":[],"categories_nodes":[],"categories_segments":[],"categories_sizes":[],"default_left":[0,0,0,0,0,0,0,0,0,0,0,0,0,0,0],"id":27,"left_children":[1,3,5,7,9,11,13,-1,-1,-1,-1,-1,-1,-1,-1],"loss_changes":[1.2419994E3,1.462833E3,5.874941E2,3.8290552E2,8.447116E2,4.4928503E2,4.1604224E2,0E0,0E0,0E0,0E0,0E0,0E0,0E0,0E0],"parents":[2147483647,0,0,1,1,2,2,3,3,4,4,5,5,6,6],"right_children":[2,4,6,8,10,12,14,-1,-1,-1,-1,-1,-1,-1,-1],"split_conditions":[7.227386E0,-3.4172442E0,-6.382007E0,-2.6375154E-1,3.2607498E0,-1.666869E-1,-3.915108E-2,-3.79652E-1,-1.5301411E-1,-1.4333448E-1,3.675413E-2,-3.2584044E-1,5.159579E-2,-6.2102724E-2,1.4074203E-1],"split_indices":[5,62,36,146,5,221,125,0,0,0,0,0,0,0,0],"split_type":[0,0,0,0,0,0,0,0,0,0,0,0,0,0,0],"sum_hessian":[1.2533078E4,8.01566E3,4.517418E3,1.449387E3,6.5662734E3,5.0788824E2,4.0095295E3,4.244388E2,1.0249482E3,1.2930345E3,5.273239E3,2.1497844E2,2.9290982E2,4.5327133E2,3.5562583E3],"tree_param":{"num_deleted":"0","num_feature":"234","num_nodes":"15","size_leaf_vector":"1"}},{"base_weights":[4.57592E-2,4.56395E-1,-2.312428E-1,6.0114795E-1,-6.809257E-2,-6.317177E-2,-1.2109284E0,-3.0824656E-2,1.4377074E-1,1.209115E-1,-9.267175E-2,-1.7010857E-1,2.7744448E-2,-3.71504E-1,-1.14758424E-1],"categories":[],"categories_nodes":[],"categories_segments":[],"categories_sizes":[],"default_left":[0,0,0,0,0,0,0,0,0,0,0,0,0,0,0],"id":28,"left_children":[1,3,5,7,9,11,13,-1,-1,-1,-1,-1,-1,-1,-1],"loss_changes":[1.3596575E3,3.6582306E2,1.1748851E3,3.3614014E2,2.7944287E2,9.7011255E2,4.2491357E2,0E0,0E0,0E0,0E0,0E0,0E0,0E0,0E0],"parents":[2147483647,0,0,1,1,2,2,3,3,4,4,5,5,6,6],"right_children":[2,4,6,8,10,12,14,-1,-1,-1,-1,-1,-1,-1,-1],"split_conditions":[5.367576E0,-1.5564989E-1,-1.5673411E-1,-3.9151043E-2,-3.195405E0,-1.6092567E-1,-4.1394642E-1,-3.0824656E-2,1.4377074E-1,1.209115E-1,-9.267175E-2,-1.7010857E-1,2.7744448E-2,-3.71504E-1,-1.14758424E-1],"split_indices":[4,92,76,125,59,134,119,0,0,0,0,0,0,0,0],"split_type":[0,0,0,0,0,0,0,0,0,0,0,0,0,0,0],"sum_hessian":[1.1943518E4,4.810063E3,7.133454E3,3.7692502E3,1.040813E3,6.0935015E3,1.0399528E3,5.0789435E2,3.261356E3,3.8416095E2,6.5665204E2,1.240414E3,4.8530874E3,5.1131534E2,5.2863745E2],"tree_param":{"num_deleted":"0","num_feature":"234","num_nodes":"15","size_leaf_vector":"1"}},{"base_weights":[4.8834585E-2,-5.655468E-1,1.954373E-1,-2.5658715E-1,-1.2801821E0,3.5523364E-1,-3.5439894E-1,-2.0167585E-1,6.02503E-2,-3.359596E-1,-7.029281E-2,1.5901566E-3,1.4060181E-1,-2.5002402E-1,6.052909E-2],"categories":[],"categories_nodes":[],"categories_segments":[],"categories_sizes":[],"default_left":[0,0,0,0,0,0,0,0,0,0,0,0,0,0,0],"id":29,"left_children":[1,3,5,7,9,11,13,-1,-1,-1,-1,-1,-1,-1,-1],"loss_changes":[1.0517823E3,4.9491986E2,8.2890137E2,6.6294824E2,2.4835608E2,8.823942E2,1.2526958E3,0E0,0E0,0E0,0E0,0E0,0E0,0E0,0E0],"parents":[2147483647,0,0,1,1,2,2,3,3,4,4,5,5,6,6],"right_children":[2,4,6,8,10,12,14,-1,-1,-1,-1,-1,-1,-1,-1],"split_conditions":[-1.7503496E-1,6.6137514E0,7.7638035E0,5.3992047E0,7.730743E0,6.0007806E0,8.571496E0,-2.0167585E-1,6.02503E-2,-3.359596E-1,-7.029281E-2,1.5901566E-3,1.4060181E-1,-2.5002402E-1,6.052909E-2],"split_indices":[69,4,4,5,5,5,5,0,0,0,0,0,0,0,0],"split_type":[0,0,0,0,0,0,0,0,0,0,0,0,0,0,0],"sum_hessian":[1.1666666E4,2.2446855E3,9.42198E3,1.5719963E3,6.7268915E2,7.3018335E3,2.1201467E3,6.679498E2,9.040466E2,4.6741495E2,2.0527417E2,3.6562068E3,3.645627E3,8.952833E2,1.2248633E3],"tree_param":{"num_deleted":"0","num_feature":"234","num_nodes":"15","size_leaf_vector":"1"}},{"base_weights":[3.3363756E-2,6.4653164E-1,-1.1436806E-1,-8.4226626E-1,7.638539E-1,3.1088114E-1,-3.528129E-1,-2.4557786E-1,1.7131984E-1,9.187494E-2,2.0807083E-1,-7.421014E-2,8.7941244E-2,-1.46795E-1,1.2362789E-3],"categories":[],"categories_nodes":[],"categories_segments":[],"categories_sizes":[],"default_left":[0,0,0,0,0,0,0,0,0,0,0,0,0,0,0],"id":30,"left_children":[1,3,5,7,9,11,13,-1,-1,-1,-1,-1,-1,-1,-1],"loss_changes":[1.0126208E3,3.82307E2,9.1402185E2,1.106759E2,1.6706018E2,2.853736E2,7.902697E2,0E0,0E0,0E0,0E0,0E0,0E0,0E0,0E0],"parents":[2147483647,0,0,1,1,2,2,3,3,4,4,5,5,6,6],"right_children":[2,4,6,8,10,12,14,-1,-1,-1,-1,-1,-1,-1,-1],"split_conditions":[-8.749016E-2,-1.6939472E-1,5.2479944E0,-1.0627695E-1,-1.0627695E-1,-1.24234855E-1,4.70455E-1,-2.4557786E-1,1.7131984E-1,9.187494E-2,2.0807083E-1,-7.421014E-2,8.7941244E-2,-1.46795E-1,1.2362789E-3],"split_indices":[228,76,4,228,228,197,70,0,0,0,0,0,0,0,0],"split_type":[0,0,0,0,0,0,0,0,0,0,0,0,0,0,0],"sum_hessian":[1.1169086E4,2.1653777E3,9.003708E3,1.5585526E2,2.0095225E3,3.2340586E3,5.7696494E3,1.2820029E2,2.7654982E1,9.628789E2,1.0466436E3,5.12258E2,2.7218008E3,2.7960256E3,2.9736238E3],"tree_param":{"num_deleted":"0","num_feature":"234","num_nodes":"15","size_leaf_vector":"1"}},{"base_weights":[3.656238E-2,-4.702872E-1,2.0662877E-1,-8.972684E-1,2.6111025E-1,2.763139E-1,-1.3329095E0,-9.30882E-2,-3.495857E-1,1.5457252E-1,-1.0982324E-1,-6.6115186E-2,9.627858E-2,-3.3732077E-1,-8.4283166E-2],"categories":[],"categories_nodes":[],"categories_segments":[],"categories_sizes":[],"default_left":[0,0,0,0,0,0,0,0,0,0,0,0,0,0,0],"id":31,"left_children":[1,3,5,7,9,11,13,-1,-1,-1,-1,-1,-1,-1,-1],"loss_changes":[9.4828687E2,8.64401E2,8.8542084E2,6.3722034E2,4.2614612E2,9.821152E2,1.1148541E2,0E0,0E0,0E0,0E0,0E0,0E0,0E0,0E0],"parents":[2147483647,0,0,1,1,2,2,3,3,4,4,5,5,6,6],"right_children":[2,4,6,8,10,12,14,-1,-1,-1,-1,-1,-1,-1,-1],"split_conditions":[-2.6442367E-1,7.730743E0,-2.4024522E-2,6.1858063E0,8.347154E0,4.8336987E0,-9.835616E-2,-9.30882E-2,-3.495857E-1,1.5457252E-1,-1.0982324E-1,-6.6115186E-2,9.627858E-2,-3.3732077E-1,-8.4283166E-2],"split_indices":[144,5,72,4,4,5,227,0,0,0,0,0,0,0,0],"split_type":[0,0,0,0,0,0,0,0,0,0,0,0,0,0,0],"sum_hessian":[1.0990922E4,2.758962E3,8.23196E3,1.7413721E3,1.0175897E3,7.8794736E3,3.5248618E2,1.1602423E3,5.8112976E2,6.2388666E2,3.9370306E2,1.9892231E3,5.8902505E3,2.508033E2,1.01682884E2],"tree_param":{"num_deleted":"0","num_feature":"234","num_nodes":"15","size_leaf_vector":"1"}},{"base_weights":[3.2577727E-2,1.6981232E-1,-5.843196E-1,2.73589E-1,-7.818373E-1,-1.0326992E0,2.3503868E-1,-1.2594147E-1,7.358269E-2,-3.7704535E-2,-2.747921E-1,-3.3391795E-1,-1.5850222E-1,-2.0683806E-1,1.21952176E-1],"categories":[],"categories_nodes":[],"categories_segments":[],"categories_sizes":[],"default_left":[0,0,0,0,0,0,0,0,0,0,0,0,0,0,0],"id":32,"left_children":[1,3,5,7,9,11,13,-1,-1,-1,-1,-1,-1,-1,-1],"loss_changes":[8.878131E2,8.481835E2,7.024014E2,6.604701E2,2.9529004E2,1.8197156E2,3.260294E2,0E0,0E0,0E0,0E0,0E0,0E0,0E0,0E0],"parents":[2147483647,0,0,1,1,2,2,3,3,4,4,5,5,6,6],"right_children":[2,4,6,8,10,12,14,-1,-1,-1,-1,-1,-1,-1,-1],"split_conditions":[-1.5564898E-1,1.5213995E0,-1.3885398E-1,-1.6935395E-1,-1.6716538E-1,-4.1399884E-1,3.7684941E0,-1.2594147E-1,7.358269E-2,-3.7704535E-2,-2.747921E-1,-3.3391795E-1,-1.5850222E-1,-2.0683806E-1,1.21952176E-1],"split_indices":[98,232,95,76,148,119,5,0,0,0,0,0,0,0,0],"split_type":[0,0,0,0,0,0,0,0,0,0,0,0,0,0,0],"sum_hessian":[1.0476481E4,8.573101E3,1.9033809E3,7.733442E3,8.396583E2,1.2294213E3,6.7395953E2,7.2840875E2,7.005033E3,4.2278424E2,4.1687408E2,3.284146E2,9.010067E2,1.5155576E2,5.2240375E2],"tree_param":{"num_deleted":"0","num_feature":"234","num_nodes":"15","size_leaf_vector":"1"}},{"base_weights":[1.807208E-2,3.7799686E-1,-1.8495402E-1,-2.9729506E-1,4.7502914E-1,-5.442196E-1,1.2083171E-1,-3.0687436E-1,2.6169398E-3,1.04781285E-1,-2.101383E-1,-1.8212534E-2,-1.842474E-1,-2.0570074E-1,5.861148E-2],"categories":[],"categories_nodes":[],"categories_segments":[],"categories_sizes":[],"default_left":[0,0,0,0,0,0,0,0,0,0,0,0,0,0,0],"id":33,"left_children":[1,3,5,7,9,11,13,-1,-1,-1,-1,-1,-1,-1,-1],"loss_changes":[7.393013E2,2.3980591E2,7.109769E2,1.7739703E2,2.40763E2,5.0778217E2,6.9388684E2,0E0,0E0,0E0,0E0,0E0,0E0,0E0,0E0],"parents":[2147483647,0,0,1,1,2,2,3,3,4,4,5,5,6,6],"right_children":[2,4,6,8,10,12,14,-1,-1,-1,-1,-1,-1,-1,-1],"split_conditions":[5.287524E0,-2.1435742E-1,-2.1467134E-1,-1.6093242E-1,-2.4024522E-2,-9.752359E-2,-5.707296E-2,-3.0687436E-1,2.6169398E-3,1.04781285E-1,-2.101383E-1,-1.8212534E-2,-1.842474E-1,-2.0570074E-1,5.861148E-2],"split_indices":[4,174,221,128,72,230,83,0,0,0,0,0,0,0,0],"split_type":[0,0,0,0,0,0,0,0,0,0,0,0,0,0,0],"sum_hessian":[1.0107094E4,3.6437085E3,6.4633853E3,4.5635767E2,3.1873508E3,2.9701748E3,3.4932102E3,8.764332E1,3.6871436E2,3.0916567E3,9.569424E1,1.3518219E3,1.6183529E3,4.519194E2,3.041291E3],"tree_param":{"num_deleted":"0","num_feature":"234","num_nodes":"15","size_leaf_vector":"1"}},{"base_weights":[3.3801228E-2,-1.3704865E-1,4.5911577E-1,3.9081626E-2,-1.1679782E0,7.414867E-1,-4.4637346E-1,-1.1159622E-1,4.5932524E-2,-3.082253E-1,-1.10070765E-1,4.9791448E-2,1.6690281E-1,-2.993146E-1,3.888851E-2],"categories":[],"categories_nodes":[],"categories_segments":[],"categories_sizes":[],"default_left":[0,0,0,0,0,0,0,0,0,0,0,0,0,0,0],"id":34,"left_children":[1,3,5,7,9,11,13,-1,-1,-1,-1,-1,-1,-1,-1],"loss_changes":[7.234698E2,1.2901332E3,7.312087E2,6.914784E2,2.3447974E2,9.859729E1,4.600821E2,0E0,0E0,0E0,0E0,0E0,0E0,0E0,0E0],"parents":[2147483647,0,0,1,1,2,2,3,3,4,4,5,5,6,6],"right_children":[2,4,6,8,10,12,14,-1,-1,-1,-1,-1,-1,-1,-1],"split_conditions":[7.730743E0,7.3863716E0,1.0155593E1,-2.6375154E-1,-3.0936897E0,-3.914636E-2,1.1511424E1,-1.1159622E-1,4.5932524E-2,-3.082253E-1,-1.10070765E-1,4.9791448E-2,1.6690281E-1,-2.993146E-1,3.888851E-2],"split_indices":[5,4,4,146,27,131,5,0,0,0,0,0,0,0,0],"split_type":[0,0,0,0,0,0,0,0,0,0,0,0,0,0,0],"sum_hessian":[9.946471E3,7.098243E3,2.8482278E3,6.066516E3,1.031727E3,2.1719387E3,6.7628894E2,1.465416E3,4.6011E3,6.3839294E2,3.933341E2,3.4814648E2,1.8237922E3,2.538108E2,4.2247815E2],"tree_param":{"num_deleted":"0","num_feature":"234","num_nodes":"15","size_leaf_vector":"1"}},{"base_weights":[2.49566E-2,-3.811844E-1,2.1620706E-1,2.078857E-1,-6.858115E-1,5.792522E-1,-1.6941415E-1,1.3181958E-1,-5.6541633E-2,-8.11755E-2,-2.497983E-1,1.2894993E-1,-1.9491509E-1,1.0776164E-1,-8.857544E-2],"categories":[],"categories_nodes":[],"categories_segments":[],"categories_sizes":[],"default_left":[0,0,0,0,0,0,0,0,0,0,0,0,0,0,0],"id":35,"left_children":[1,3,5,7,9,11,13,-1,-1,-1,-1,-1,-1,-1,-1],"loss_changes":[7.4660876E2,5.529581E2,9.153739E2,2.3398201E2,3.1727136E2,3.457876E2,6.156197E2,0E0,0E0,0E0,0E0,0E0,0E0,0E0,0E0],"parents":[2147483647,0,0,1,1,2,2,3,3,4,4,5,5,6,6],"right_children":[2,4,6,8,10,12,14,-1,-1,-1,-1,-1,-1,-1,-1],"split_conditions":[5.3992047E0,4.522922E0,6.508418E0,-1.3973285E-1,2.5156447E-1,-2.2710646E-2,-4.2955298E-2,1.3181958E-1,-5.6541633E-2,-8.11755E-2,-2.497983E-1,1.2894993E-1,-1.9491509E-1,1.0776164E-1,-8.857544E-2],"split_indices":[5,4,4,95,136,81,81,0,0,0,0,0,0,0,0],"split_type":[0,0,0,0,0,0,0,0,0,0,0,0,0,0,0],"sum_hessian":[9.601907E3,3.0722227E3,6.529685E3,1.0476322E3,2.0245903E3,3.3621343E3,3.1675505E3,5.449311E2,5.027011E2,1.3582434E3,6.663469E2,3.2290137E3,1.3312068E2,8.809149E2,2.2866355E3],"tree_param":{"num_deleted":"0","num_feature":"234","num_nodes":"15","size_leaf_vector":"1"}},{"base_weights":[1.685817E-2,-4.9151823E-1,1.7011666E-1,-1.6084098E0,-3.4132928E-1,8.1817013E-1,4.344531E-2,-4.3570113E-1,-1.9456075E-1,-2.6883528E-1,-2.7918307E-2,-1.1946547E-1,1.7709765E-1,-9.5589824E-2,3.8449384E-2],"categories":[],"categories_nodes":[],"categories_segments":[],"categories_sizes":[],"default_left":[0,0,0,0,0,0,0,0,0,0,0,0,0,0,0],"id":36,"left_children":[1,3,5,7,9,11,13,-1,-1,-1,-1,-1,-1,-1,-1],"loss_changes":[7.1714197E2,3.5470142E2,5.803067E2,8.014514E1,3.8042688E2,1.128233E2,4.5984055E2,0E0,0E0,0E0,0E0,0E0,0E0,0E0,0E0],"parents":[2147483647,0,0,1,1,2,2,3,3,4,4,5,5,6,6],"right_children":[2,4,6,8,10,12,14,-1,-1,-1,-1,-1,-1,-1,-1],"split_conditions":[-1.7154418E-1,-1.7288432E-1,-8.749016E-2,-1.1488475E-1,4.2160945E0,-1.6363506E-1,-4.1401118E-1,-4.3570113E-1,-1.9456075E-1,-2.6883528E-1,-2.7918307E-2,-1.1946547E-1,1.7709765E-1,-9.5589824E-2,3.8449384E-2],"split_indices":[69,132,228,206,5,75,119,0,0,0,0,0,0,0,0],"split_type":[0,0,0,0,0,0,0,0,0,0,0,0,0,0,0],"sum_hessian":[9.194441E3,2.1270566E3,7.0673843E3,2.4629002E2,1.8807666E3,1.1509604E3,5.916424E3,1.2335463E2,1.22935394E2,3.1015616E2,1.5706105E3,5.0397617E1,1.1005627E3,1.311001E3,4.605423E3],"tree_param":{"num_deleted":"0","num_feature":"234","num_nodes":"15","size_leaf_vector":"1"}},{"base_weights":[1.9310975E-2,-4.8912942E-1,1.6350147E-1,-3.0287072E-1,-1.0762173E0,-1.073556E0,2.22211E-1,-1.7251626E-1,-2.6297912E-2,-1.3400523E-1,-3.491506E-1,-1.3966237E-1,-3.56995E-1,7.007908E-2,-6.6929124E-2],"categories":[],"categories_nodes":[],"categories_segments":[],"categories_sizes":[],"default_left":[0,0,0,0,0,0,0,0,0,0,0,0,0,0,0],"id":37,"left_children":[1,3,5,7,9,11,13,-1,-1,-1,-1,-1,-1,-1,-1],"loss_changes":[6.6451886E2,2.1721906E2,5.139705E2,1.458456E2,1.245152E2,7.9140594E1,4.8210995E2,0E0,0E0,0E0,0E0,0E0,0E0,0E0,0E0],"parents":[2147483647,0,0,1,1,2,2,3,3,4,4,5,5,6,6],"right_children":[2,4,6,8,10,12,14,-1,-1,-1,-1,-1,-1,-1,-1],"split_conditions":[-2.938584E-1,-1.5719083E-1,-1.7616959E-1,-5.6900635E-2,5.89576E0,-4.5616725E-1,-1.5564898E-1,-1.7251626E-1,-2.6297912E-2,-1.3400523E-1,-3.491506E-1,-1.3966237E-1,-3.56995E-1,7.007908E-2,-6.6929124E-2],"split_indices":[155,76,86,83,4,122,98,0,0,0,0,0,0,0,0],"split_type":[0,0,0,0,0,0,0,0,0,0,0,0,0,0,0],"sum_hessian":[9.054214E3,1.9976176E3,7.056596E3,1.5223793E3,4.752382E2,3.1573206E2,6.7408643E3,3.5200937E2,1.17037E3,3.0210898E2,1.7312923E2,2.132827E2,1.0244935E2,5.4811714E3,1.259693E3],"tree_param":{"num_deleted":"0","num_feature":"234","num_nodes":"15","size_leaf_vector":"1"}},{"base_weights":[1.8407758E-2,1.1677339E-1,-7.1608037E-1,4.9689263E-1,-1.2130869E-1,-1.0766784E0,1.14060044E-1,2.3536822E-2,2.0968775E-1,6.34104E-3,-1.3719305E-1,-3.120087E-1,5.159322E-3,1.406709E-1,-1.585897E-1],"categories":[],"categories_nodes":[],"categories_segments":[],"categories_sizes":[],"default_left":[0,0,0,0,0,0,0,0,0,0,0,0,0,0,0],"id":38,"left_children":[1,3,5,7,9,11,13,-1,-1,-1,-1,-1,-1,-1,-1],"loss_changes":[6.4164185E2,7.091488E2,3.1469775E2,6.303757E2,4.1659845E2,3.903421E2,1.7493184E2,0E0,0E0,0E0,0E0,0E0,0E0,0E0,0E0],"parents":[2147483647,0,0,1,1,2,2,3,3,4,4,5,5,6,6],"right_children":[2,4,6,8,10,12,14,-1,-1,-1,-1,-1,-1,-1,-1],"split_conditions":[1.5196996E0,-9.752359E-2,7.7991624E0,-9.835616E-2,7.9060245E0,-2.4192862E-1,8.522804E0,2.3536822E-2,2.0968775E-1,6.34104E-3,-1.3719305E-1,-3.120087E-1,5.159322E-3,1.406709E-1,-1.585897E-1],"split_indices":[231,230,5,227,4,145,4,0,0,0,0,0,0,0,0],"split_type":[0,0,0,0,0,0,0,0,0,0,0,0,0,0,0],"sum_hessian":[8.871098E3,7.8271895E3,1.0439078E3,3.0124807E3,4.814709E3,7.2682404E2,3.1708377E2,1.7888368E3,1.2236438E3,3.7917427E3,1.02296625E3,5.0390802E2,2.2291605E2,1.9295288E2,1.24130905E2],"tree_param":{"num_deleted":"0","num_feature":"234","num_nodes":"15","size_leaf_vector":"1"}},{"base_weights":[1.7107576E-2,-7.468173E-1,1.0972963E-1,-4.5350072E-1,-1.4798096E0,-8.870379E-2,5.229924E-1,4.449482E-2,-1.8562047E-1,-4.4477233E-1,-2.0039716E-1,-6.2165763E-2,7.525206E-2,1.21574774E-1,-2.1062234E-1],"categories":[],"categories_nodes":[],"categories_segments":[],"categories_sizes":[],"default_left":[0,0,0,0,0,0,0,0,0,0,0,0,0,0,0],"id":39,"left_children":[1,3,5,7,9,11,13,-1,-1,-1,-1,-1,-1,-1,-1],"loss_changes":[6.156068E2,1.9872302E2,6.366098E2,2.190132E2,8.330951E1,5.4244446E2,3.4003558E2,0E0,0E0,0E0,0E0,0E0,0E0,0E0,0E0],"parents":[2147483647,0,0,1,1,2,2,3,3,4,4,5,5,6,6],"right_children":[2,4,6,8,10,12,14,-1,-1,-1,-1,-1,-1,-1,-1],"split_conditions":[3.328245E0,-3.9017355E-1,-9.539683E-2,4.522922E0,-1.7290688E-1,7.972783E0,1.1327018E1,4.449482E-2,-1.8562047E-1,-4.4477233E-1,-2.0039716E-1,-6.2165763E-2,7.525206E-2,1.21574774E-1,-2.1062234E-1],"split_indices":[5,119,143,4,85,5,4,0,0,0,0,0,0,0,0],"split_type":[0,0,0,0,0,0,0,0,0,0,0,0,0,0,0],"sum_hessian":[8.690493E3,9.358043E2,7.7546885E3,6.742316E2,2.6157272E2,5.2415674E3,2.513121E3,2.7912274E2,3.9510886E2,9.5063255E1,1.6650948E2,3.5483188E3,1.6932484E3,2.3876677E3,1.254534E2],"tree_param":{"num_deleted":"0","num_feature":"234","num_nodes":"15","size_leaf_vector":"1"}},{"base_weights":[1.4106487E-2,-1.7565873E-1,3.6183873E-1,-6.614225E-1,-3.2481197E-2,4.929373E-1,-1.0321913E0,-2.8786123E-1,-7.64004E-2,1.7880978E-2,-1.2739614E-1,1.2076072E-1,-1.9804631E-1,1.8726494E-2,-2.638527E-1],"categories":[],"categories_nodes":[],"categories_segments":[],"categories_sizes":[],"default_left":[0,0,0,0,0,0,0,0,0,0,0,0,0,0,0],"id":40,"left_children":[1,3,5,7,9,11,13,-1,-1,-1,-1,-1,-1,-1,-1],"loss_changes":[5.51483E2,3.7585928E2,5.4173206E2,2.6450488E2,3.0841534E2,4.4699347E2,8.32135E1,0E0,0E0,0E0,0E0,0E0,0E0,0E0,0E0],"parents":[2147483647,0,0,1,1,2,2,3,3,4,4,5,5,6,6],"right_children":[2,4,6,8,10,12,14,-1,-1,-1,-1,-1,-1,-1,-1],"split_conditions":[-1.2739858E-1,-1.7503496E-1,-2.4024522E-2,-2.5925094E-1,1.4879324E0,-3.550379E-2,-9.828822E-2,-2.8786123E-1,-7.64004E-2,1.7880978E-2,-1.2739614E-1,1.2076072E-1,-1.9804631E-1,1.8726494E-2,-2.638527E-1],"split_indices":[194,69,72,152,220,192,229,0,0,0,0,0,0,0,0],"split_type":[0,0,0,0,0,0,0,0,0,0,0,0,0,0,0],"sum_hessian":[8.347289E3,5.401666E3,2.9456226E3,1.2254022E3,4.176264E3,2.6954395E3,2.5018312E2,3.1826514E2,9.071371E2,3.4789028E3,6.97361E2,2.5107908E3,1.8464873E2,5.1445976E1,1.9873715E2],"tree_param":{"num_deleted":"0","num_feature":"234","num_nodes":"15","size_leaf_vector":"1"}},{"base_weights":[7.269193E-3,-3.8203034E-1,1.7584966E-1,-1.2701516E0,-1.7900683E-1,-1.333852E-1,4.4120923E-1,-2.980171E-1,-3.7205677E-2,4.731612E-2,-1.2654874E-1,-1.0832288E-1,7.1816236E-2,1.2396299E-1,9.089082E-3],"categories":[],"categories_nodes":[],"categories_segments":[],"categories_sizes":[],"default_left":[0,0,0,0,0,0,0,0,0,0,0,0,0,0,0],"id":41,"left_children":[1,3,5,7,9,11,13,-1,-1,-1,-1,-1,-1,-1,-1],"loss_changes":[5.37575E2,4.450147E2,4.6939026E2,1.0803827E2,3.8179575E2,5.324458E2,2.1734149E2,0E0,0E0,0E0,0E0,0E0,0E0,0E0,0E0],"parents":[2147483647,0,0,1,1,2,2,3,3,4,4,5,5,6,6],"right_children":[2,4,6,8,10,12,14,-1,-1,-1,-1,-1,-1,-1,-1],"split_conditions":[5.349595E0,-1.6093132E-1,-3.3146966E0,-1.4466196E-1,-1.4891055E-1,8.755835E0,-8.467423E-2,-2.980171E-1,-3.7205677E-2,4.731612E-2,-1.2654874E-1,-1.0832288E-1,7.1816236E-2,1.2396299E-1,9.089082E-3],"split_indices":[5,128,62,161,90,5,229,0,0,0,0,0,0,0,0],"split_type":[0,0,0,0,0,0,0,0,0,0,0,0,0,0,0],"sum_hessian":[8.1814033E3,2.4701685E3,5.711235E3,4.5462946E2,2.015539E3,2.6385408E3,3.0726943E3,3.7632138E2,7.830808E1,1.0531284E3,9.624106E2,1.4424928E3,1.196048E3,2.1150862E3,9.576082E2],"tree_param":{"num_deleted":"0","num_feature":"234","num_nodes":"15","size_leaf_vector":"1"}},{"base_weights":[2.641574E-2,1.614593E-1,-4.0984526E-1,-4.881869E-1,2.5729805E-1,-9.692182E-1,-9.40981E-2,-4.073748E-2,-2.8076723E-1,6.528386E-2,-1.6594414E-1,-2.5146908E-1,-5.9375223E-2,2.0169652E-1,-3.726746E-2],"categories":[],"categories_nodes":[],"categories_segments":[],"categories_sizes":[],"default_left":[0,0,0,0,0,0,0,0,0,0,0,0,0,0,0],"id":42,"left_children":[1,3,5,7,9,11,13,-1,-1,-1,-1,-1,-1,-1,-1],"loss_changes":[4.7226743E2,3.817146E2,3.34108E2,2.0381992E2,4.0235132E2,1.3029291E2,1.2461099E2,0E0,0E0,0E0,0E0,0E0,0E0,0E0,0E0],"parents":[2147483647,0,0,1,1,2,2,3,3,4,4,5,5,6,6],"right_children":[2,4,6,8,10,12,14,-1,-1,-1,-1,-1,-1,-1,-1],"split_conditions":[1.1352787E0,3.5821438E0,-2.998303E-1,-3.9590877E-1,-2.2710646E-2,7.764007E0,3.5143578E0,-4.073748E-2,-2.8076723E-1,6.528386E-2,-1.6594414E-1,-2.5146908E-1,-5.9375223E-2,2.0169652E-1,-3.726746E-2],"split_indices":[160,5,205,119,81,5,2,0,0,0,0,0,0,0,0],"split_type":[0,0,0,0,0,0,0,0,0,0,0,0,0,0,0],"sum_hessian":[8.00599E3,6.1161343E3,1.8898562E3,7.835181E2,5.332616E3,6.780205E2,1.2118357E3,6.02529E2,1.809891E2,5.0171753E3,3.1544107E2,4.714745E2,2.0654602E2,8.963489E1,1.1222008E3],"tree_param":{"num_deleted":"0","num_feature":"234","num_nodes":"15","size_leaf_vector":"1"}},{"base_weights":[2.2753337E-2,1.5092225E-1,-4.5513752E-1,-1.0634269E-1,5.503063E-1,-1.0421183E0,2.8556478E-1,-1.8406704E-1,1.2209837E-2,-2.7262846E-2,1.3766156E-1,-6.716125E-2,-2.5664327E-1,-1.7456655E-1,1.3400596E-1],"categories":[],"categories_nodes":[],"categories_segments":[],"categories_sizes":[],"default_left":[0,0,0,0,0,0,0,0,0,0,0,0,0,0,0],"id":43,"left_children":[1,3,5,7,9,11,13,-1,-1,-1,-1,-1,-1,-1,-1],"loss_changes":[4.7834464E2,6.3304944E2,7.196293E2,5.1124258E2,2.29219E2,1.5478424E2,3.298107E2,0E0,0E0,0E0,0E0,0E0,0E0,0E0,0E0],"parents":[2147483647,0,0,1,1,2,2,3,3,4,4,5,5,6,6],"right_children":[2,4,6,8,10,12,14,-1,-1,-1,-1,-1,-1,-1,-1],"split_conditions":[7.9433894E0,6.407212E0,9.704538E0,-6.0071105E-1,-3.915106E-2,4.8157517E-2,-7.35795E0,-1.8406704E-1,1.2209837E-2,-2.7262846E-2,1.3766156E-1,-6.716125E-2,-2.5664327E-1,-1.7456655E-1,1.3400596E-1],"split_indices":[4,5,5,224,125,233,46,0,0,0,0,0,0,0,0],"split_type":[0,0,0,0,0,0,0,0,0,0,0,0,0,0,0],"sum_hessian":[7.7995024E3,6.152934E3,1.6465685E3,3.7443887E3,2.4085454E3,9.175457E2,7.2902277E2,6.3493524E2,3.1094536E3,4.0296194E2,2.0055835E3,2.3664822E2,6.8089746E2,1.8001729E2,5.490055E2],"tree_param":{"num_deleted":"0","num_feature":"234","num_nodes":"15","size_leaf_vector":"1"}},{"base_weights":[8.75381E-3,4.221005E-1,-1.449318E-1,-1.9858348E-1,5.994461E-1,-4.4137543E-1,1.5828401E-1,2.7444068E-2,-2.8225654E-1,7.465746E-2,1.7858087E-1,-3.0857205E-2,-2.294067E-1,2.0475452E-1,-5.4080533E-3],"categories":[],"categories_nodes":[],"categories_segments":[],"categories_sizes":[],"default_left":[0,0,0,0,0,0,0,0,0,0,0,0,0,0,0],"id":44,"left_children":[1,3,5,7,9,11,13,-1,-1,-1,-1,-1,-1,-1,-1],"loss_changes":[4.734987E2,2.230145E2,4.8874783E2,1.8540237E2,1.0258087E2,5.558486E2,4.3161218E2,0E0,0E0,0E0,0E0,0E0,0E0,0E0,0E0],"parents":[2147483647,0,0,1,1,2,2,3,3,4,4,5,5,6,6],"right_children":[2,4,6,8,10,12,14,-1,-1,-1,-1,-1,-1,-1,-1],"split_conditions":[4.8722444E0,3.8305967E0,4.70455E-1,-3.798613E-1,-2.9360104E-1,4.6360922E-1,1.0186019E0,2.7444068E-2,-2.8225654E-1,7.465746E-2,1.7858087E-1,-3.0857205E-2,-2.294067E-1,2.0475452E-1,-5.4080533E-3],"split_indices":[4,5,70,119,155,70,70,0,0,0,0,0,0,0,0],"split_type":[0,0,0,0,0,0,0,0,0,0,0,0,0,0,0],"sum_hessian":[7.4434346E3,2.0152408E3,5.428194E3,4.4758728E2,1.5676536E3,2.743763E3,2.684431E3,3.539329E2,9.36544E1,8.9195404E2,6.756995E2,1.954735E3,7.89028E2,4.6953934E2,2.2148914E3],"tree_param":{"num_deleted":"0","num_feature":"234","num_nodes":"15","size_leaf_vector":"1"}},{"base_weights":[7.808504E-3,-3.6921316E-1,1.5527108E-1,-6.0865974E-1,1.02490716E-1,2.7396753E-1,-3.509322E-1,-2.1735337E-1,-6.88753E-2,4.8960514E-2,-2.6731652E-1,-4.9390517E-2,8.6713105E-2,-1.8411987E-1,1.3493689E-2],"categories":[],"categories_nodes":[],"categories_segments":[],"categories_sizes":[],"default_left":[0,0,0,0,0,0,0,0,0,0,0,0,0,0,0],"id":45,"left_children":[1,3,5,7,9,11,13,-1,-1,-1,-1,-1,-1,-1,-1],"loss_changes":[4.0629428E2,2.3242719E2,3.161278E2,1.7029465E2,1.440523E2,3.5460486E2,2.3872327E2,0E0,0E0,0E0,0E0,0E0,0E0,0E0,0E0],"parents":[2147483647,0,0,1,1,2,2,3,3,4,4,5,5,6,6],"right_children":[2,4,6,8,10,12,14,-1,-1,-1,-1,-1,-1,-1,-1],"split_conditions":[-2.6375154E-1,-1.2739858E-1,-1.6012426E-1,-3.2688227E0,-6.82657E-2,-5.6776624E-2,-4.139548E-1,-2.1735337E-1,-6.88753E-2,4.8960514E-2,-2.6731652E-1,-4.9390517E-2,8.6713105E-2,-1.8411987E-1,1.3493689E-2],"split_indices":[146,194,68,39,228,83,119,0,0,0,0,0,0,0,0],"split_type":[0,0,0,0,0,0,0,0,0,0,0,0,0,0,0],"sum_hessian":[7.2981284E3,2.0496174E3,5.248511E3,1.3586826E3,6.909348E2,4.253602E3,9.949091E2,4.7800275E2,8.806799E2,6.325955E2,5.8339275E1,9.9678394E2,3.2568179E3,4.1885757E2,5.760516E2],"tree_param":{"num_deleted":"0","num_feature":"234","num_nodes":"15","size_leaf_vector":"1"}},{"base_weights":[8.602511E-3,-4.139616E-1,1.4413635E-1,-1.0946103E0,-2.3476057E-1,-5.4255015E-1,2.2549982E-1,-2.8586978E-1,-5.4101463E-2,9.998363E-3,-1.462111E-1,-1.6655646E-1,4.4336714E-2,6.1989326E-2,-7.802504E-2],"categories":[],"categories_nodes":[],"categories_segments":[],"categories_sizes":[],"default_left":[0,0,0,0,0,0,0,0,0,0,0,0,0,0,0],"id":46,"left_children":[1,3,5,7,9,11,13,-1,-1,-1,-1,-1,-1,-1,-1],"loss_changes":[4.1043445E2,2.1085513E2,3.0375793E2,9.754257E1,1.9585468E2,1.2878413E2,2.530062E2,0E0,0E0,0E0,0E0,0E0,0E0,0E0,0E0],"parents":[2147483647,0,0,1,1,2,2,3,3,4,4,5,5,6,6],"right_children":[2,4,6,8,10,12,14,-1,-1,-1,-1,-1,-1,-1,-1],"split_conditions":[-1.7154418E-1,-1.6343547E-1,-4.1403106E-1,-2.8739312E-1,-1.3973092E-1,-1.6971791E-1,1.1924207E0,-2.8586978E-1,-5.4101463E-2,9.998363E-3,-1.462111E-1,-1.6655646E-1,4.4336714E-2,6.1989326E-2,-7.802504E-2],"split_indices":[69,75,119,205,95,155,216,0,0,0,0,0,0,0,0],"split_type":[0,0,0,0,0,0,0,0,0,0,0,0,0,0,0],"sum_hessian":[7.1567017E3,1.7353282E3,5.421373E3,3.5621985E2,1.3791084E3,5.711813E2,4.850192E3,2.5062582E2,1.0559402E2,8.790454E2,5.0006308E2,4.1373862E2,1.5744264E2,4.267459E3,5.827328E2],"tree_param":{"num_deleted":"0","num_feature":"234","num_nodes":"15","size_leaf_vector":"1"}},{"base_weights":[1.7939266E-2,9.800757E-2,-5.498096E-1,4.4207436E-1,-1.0174554E-1,-1.2279985E0,-3.145763E-1,2.1715483E-2,2.1347554E-1,-4.8089486E-2,8.63794E-2,-3.4503692E-1,-9.0507396E-2,-4.026005E-2,-3.3586362E-1],"categories":[],"categories_nodes":[],"categories_segments":[],"categories_sizes":[],"default_left":[0,0,0,0,0,0,0,0,0,0,0,0,0,0,0],"id":47,"left_children":[1,3,5,7,9,11,13,-1,-1,-1,-1,-1,-1,-1,-1],"loss_changes":[3.2519257E2,4.311515E2,1.3896573E2,4.797713E2,2.943854E2,8.296042E1,1.0066139E2,0E0,0E0,0E0,0E0,0E0,0E0,0E0,0E0],"parents":[2147483647,0,0,1,1,2,2,3,3,4,4,5,5,6,6],"right_children":[2,4,6,8,10,12,14,-1,-1,-1,-1,-1,-1,-1,-1],"split_conditions":[1.5196996E0,-9.752359E-2,-3.0118212E-1,-9.835616E-2,9.565668E-2,7.227386E0,1.804311E-2,2.1715483E-2,2.1347554E-1,-4.8089486E-2,8.63794E-2,-3.4503692E-1,-9.0507396E-2,-4.026005E-2,-3.3586362E-1],"split_indices":[231,230,205,227,221,5,227,0,0,0,0,0,0,0,0],"split_type":[0,0,0,0,0,0,0,0,0,0,0,0,0,0,0],"sum_hessian":[7.143652E3,6.2644976E3,8.7915454E2,2.2989988E3,3.9654988E3,2.2086455E2,6.5829E2,1.5032754E3,7.9572327E2,3.1497617E3,8.15737E2,1.3076938E2,9.009517E1,6.1320374E2,4.508625E1],"tree_param":{"num_deleted":"0","num_feature":"234","num_nodes":"15","size_leaf_vector":"1"}},{"base_weights":[1.4776412E-2,-2.1624595E-1,1.9076405E-1,-4.324893E-1,2.9495212E-1,-2.5887623E-1,4.2111275E-1,-2.2422488E-1,-4.5087893E-2,8.811117E-2,-2.446066E-1,-8.882182E-2,1.8319993E-1,-1.04438365E-1,9.462687E-2],"categories":[],"categories_nodes":[],"categories_segments":[],"categories_sizes":[],"default_left":[0,0,0,0,0,0,0,0,0,0,0,0,0,0,0],"id":48,"left_children":[1,3,5,7,9,11,13,-1,-1,-1,-1,-1,-1,-1,-1],"loss_changes":[2.826206E2,3.3290286E2,4.0923236E2,3.0006516E2,2.0072076E2,2.9351062E2,1.2936401E2,0E0,0E0,0E0,0E0,0E0,0E0,0E0,0E0],"parents":[2147483647,0,0,1,1,2,2,3,3,4,4,5,5,6,6],"right_children":[2,4,6,8,10,12,14,-1,-1,-1,-1,-1,-1,-1,-1],"split_conditions":[6.0007806E0,-1.4357425E-1,-3.9855478E0,-5.980494E-1,-2.2713439E-1,5.378896E-2,-1.6093291E-1,-2.2422488E-1,-4.5087893E-2,8.811117E-2,-2.446066E-1,-8.882182E-2,1.8319993E-1,-1.04438365E-1,9.462687E-2],"split_indices":[5,192,27,222,113,0,128,0,0,0,0,0,0,0,0],"split_type":[0,0,0,0,0,0,0,0,0,0,0,0,0,0,0],"sum_hessian":[6.941314E3,3.0006245E3,3.9406895E3,2.1093203E3,8.913041E2,1.3345657E3,2.6061238E3,4.82384E2,1.6269364E3,8.165921E2,7.4712E1,1.1555715E3,1.789942E2,1.3374895E2,2.4723748E3],"tree_param":{"num_deleted":"0","num_feature":"234","num_nodes":"15","size_leaf_vector":"1"}},{"base_weights":[1.4004372E-2,1.963343E-1,-3.033017E-1,2.4222864E-1,-8.4885734E-1,8.495178E-1,-3.970997E-1,1.4076485E-2,1.10172294E-1,-2.9384518E-1,-5.906495E-2,2.0242925E-1,-3.0032083E-1,-3.2155614E-2,-1.7665932E-1],"categories":[],"categories_nodes":[],"categories_segments":[],"categories_sizes":[],"default_left":[0,0,0,0,0,0,0,0,0,0,0,0,0,0,0],"id":49,"left_children":[1,3,5,7,9,11,13,-1,-1,-1,-1,-1,-1,-1,-1],"loss_changes":[3.9423633E2,2.0855846E2,2.7052948E2,2.1982852E2,6.0513336E1,7.96685E1,2.6380292E2,0E0,0E0,0E0,0E0,0E0,0E0,0E0,0E0],"parents":[2147483647,0,0,1,1,2,2,3,3,4,4,5,5,6,6],"right_children":[2,4,6,8,10,12,14,-1,-1,-1,-1,-1,-1,-1,-1],"split_conditions":[6.7037706E0,-2.4024522E-2,3.469012E0,4.70455E-1,-2.938329E-1,1.8520823E1,-1.4890602E-1,1.4076485E-2,1.10172294E-1,-2.9384518E-1,-5.906495E-2,2.0242925E-1,-3.0032083E-1,-3.2155614E-2,-1.7665932E-1],"split_indices":[4,72,2,70,155,4,96,0,0,0,0,0,0,0,0],"split_type":[0,0,0,0,0,0,0,0,0,0,0,0,0,0,0],"sum_hessian":[6.804324E3,4.3226636E3,2.481661E3,4.1446104E3,1.7805286E2,1.836138E2,2.2980469E3,2.666418E3,1.4781925E3,7.997232E1,9.808053E1,1.744379E2,9.175911E0,1.5510165E3,7.4703046E2],"tree_param":{"num_deleted":"0","num_feature":"234","num_nodes":"15","size_leaf_vector":"1"}},{"base_weights":[1.1605373E-2,-1.4585625E-1,3.1682608E-1,1.9224298E-1,-4.7930095E-1,6.435188E-1,-2.0090348E-1,-8.376456E-2,7.5901374E-2,-1.8108588E-1,-3.8246118E-2,8.218393E-3,1.5146856E-1,-1.532029E-1,5.94105E-2],"categories":[],"categories_nodes":[],"categories_segments":[],"categories_sizes":[],"default_left":[0,0,0,0,0,0,0,0,0,0,0,0,0,0,0],"id":50,"left_children":[1,3,5,7,9,11,13,-1,-1,-1,-1,-1,-1,-1,-1],"loss_changes":[3.2375934E2,5.0146124E2,3.88461E2,2.5366772E2,2.7385254E2,9.624017E1,2.5181895E2,0E0,0E0,0E0,0E0,0E0,0E0,0E0,0E0],"parents":[2147483647,0,0,1,1,2,2,3,3,4,4,5,5,6,6],"right_children":[2,4,6,8,10,12,14,-1,-1,-1,-1,-1,-1,-1,-1],"split_conditions":[7.2610073E0,5.5063486E0,8.522804E0,3.894788E0,-3.171429E0,-3.914638E-2,1.046244E1,-8.376456E-2,7.5901374E-2,-1.8108588E-1,-3.8246118E-2,8.218393E-3,1.5146856E-1,-1.532029E-1,5.94105E-2],"split_indices":[5,4,4,5,39,131,5,0,0,0,0,0,0,0,0],"split_type":[0,0,0,0,0,0,0,0,0,0,0,0,0,0,0],"sum_hessian":[6.7263257E3,4.438706E3,2.28762E3,2.2048728E3,2.233833E3,1.401952E3,8.8566797E2,5.1562067E2,1.6892522E3,8.965491E2,1.3372839E3,2.2401427E2,1.1779377E3,4.1369296E2,4.7197498E2],"tree_param":{"num_deleted":"0","num_feature":"234","num_nodes":"15","size_leaf_vector":"1"}},{"base_weights":[-1.4972432E-4,-4.2133775E-1,1.0040917E-1,-2.333136E-1,-1.0829998E0,-1.08782135E-1,2.996859E-1,-8.9328155E-2,5.2485026E-2,-1.6945131E-1,-3.2433406E-1,6.2291395E-2,-6.0975004E-2,1.2092612E-1,-3.9499108E-5],"categories":[],"categories_nodes":[],"categories_segments":[],"categories_sizes":[],"default_left":[0,0,0,0,0,0,0,0,0,0,0,0,0,0,0],"id":51,"left_children":[1,3,5,7,9,11,13,-1,-1,-1,-1,-1,-1,-1,-1],"loss_changes":[2.7539594E2,1.5451973E2,2.1896397E2,1.0449902E2,2.7911163E1,2.117492E2,2.4599867E2,0E0,0E0,0E0,0E0,0E0,0E0,0E0,0E0],"parents":[2147483647,0,0,1,1,2,2,3,3,4,4,5,5,6,6],"right_children":[2,4,6,8,10,12,14,-1,-1,-1,-1,-1,-1,-1,-1],"split_conditions":[-1.7730132E-1,7.139231E0,-3.914979E-2,-2.8521308E-1,-4.496044E-1,-1.6911891E-1,-1.4891069E-1,-8.9328155E-2,5.2485026E-2,-1.6945131E-1,-3.2433406E-1,6.2291395E-2,-6.0975004E-2,1.2092612E-1,-3.9499108E-5],"split_indices":[69,4,125,205,122,147,90,0,0,0,0,0,0,0,0],"split_type":[0,0,0,0,0,0,0,0,0,0,0,0,0,0,0],"sum_hessian":[6.4914585E3,1.2482488E3,5.2432095E3,9.7741223E2,2.7083652E2,2.5588345E3,2.684375E3,6.8383856E2,2.935737E2,1.9746716E2,7.336936E1,8.130235E2,1.745811E3,1.3286018E3,1.3557732E3],"tree_param":{"num_deleted":"0","num_feature":"234","num_nodes":"15","size_leaf_vector":"1"}},{"base_weights":[1.9840129E-2,-1.4185672E-1,3.0591208E-1,2.074185E-1,-3.8294128E-1,5.2312315E-1,-2.623088E-1,-1.14685975E-1,7.157927E-2,-2.0146985E-1,-4.7045827E-2,-9.465593E-3,1.2946571E-1,-1.5129845E-1,5.4701954E-2],"categories":[],"categories_nodes":[],"categories_segments":[],"categories_sizes":[],"default_left":[0,0,0,0,0,0,0,0,0,0,0,0,0,0,0],"id":52,"left_children":[1,3,5,7,9,11,13,-1,-1,-1,-1,-1,-1,-1,-1],"loss_changes":[2.9996265E2,3.4927032E2,2.8973663E2,2.0015851E2,2.2493927E2,1.20374084E2,1.7341144E2,0E0,0E0,0E0,0E0,0E0,0E0,0E0,0E0],"parents":[2147483647,0,0,1,1,2,2,3,3,4,4,5,5,6,6],"right_children":[2,4,6,8,10,12,14,-1,-1,-1,-1,-1,-1,-1,-1],"split_conditions":[7.065483E0,5.18754E0,9.53427E0,-1.6093212E-1,-3.6229396E0,-3.915108E-2,1.1977475E1,-1.14685975E-1,7.157927E-2,-2.0146985E-1,-4.7045827E-2,-9.465593E-3,1.2946571E-1,-1.5129845E-1,5.4701954E-2],"split_indices":[5,4,4,128,24,125,5,0,0,0,0,0,0,0,0],"split_type":[0,0,0,0,0,0,0,0,0,0,0,0,0,0,0],"sum_hessian":[6.4746616E3,4.1379395E3,2.3367222E3,1.6899213E3,2.448018E3,1.6909165E3,6.458057E2,2.7066882E2,1.4192524E3,4.6262726E2,1.9853907E3,3.0274716E2,1.3881693E3,3.3498123E2,3.1082452E2],"tree_param":{"num_deleted":"0","num_feature":"234","num_nodes":"15","size_leaf_vector":"1"}},{"base_weights":[6.752375E-3,-4.0241426E-1,1.18337005E-1,-7.254018E-1,8.3308496E-2,-8.258921E-2,4.9242306E-1,2.0183244E-1,-1.6230874E-1,-2.4768876E-1,5.920207E-2,3.9344896E-2,-7.350617E-2,1.3938212E-1,1.5102024E-2],"categories":[],"categories_nodes":[],"categories_segments":[],"categories_sizes":[],"default_left":[0,0,0,0,0,0,0,0,0,0,0,0,0,0,0],"id":53,"left_children":[1,3,5,7,9,11,13,-1,-1,-1,-1,-1,-1,-1,-1],"loss_changes":[2.8906763E2,2.1319518E2,3.741929E2,1.2591702E2,1.5528952E2,2.5830585E2,1.4794507E2,0E0,0E0,0E0,0E0,0E0,0E0,0E0,0E0],"parents":[2147483647,0,0,1,1,2,2,3,3,4,4,5,5,6,6],"right_children":[2,4,6,8,10,12,14,-1,-1,-1,-1,-1,-1,-1,-1],"split_conditions":[4.893094E0,5.2743565E-2,-2.934128E-1,-1.4370672E-1,-1.7102563E-1,6.343343E0,7.574156E0,2.0183244E-1,-1.6230874E-1,-2.4768876E-1,5.920207E-2,3.9344896E-2,-7.350617E-2,1.3938212E-1,1.5102024E-2],"split_indices":[5,221,155,192,84,4,4,0,0,0,0,0,0,0,0],"split_type":[0,0,0,0,0,0,0,0,0,0,0,0,0,0,0],"sum_hessian":[6.3217363E3,1.3516135E3,4.9701226E3,8.104398E2,5.411737E2,3.2357764E3,1.7343464E3,3.575411E1,7.746857E2,7.160848E1,4.6956522E2,1.6346298E3,1.6011466E3,1.1612019E3,5.7314453E2],"tree_param":{"num_deleted":"0","num_feature":"234","num_nodes":"15","size_leaf_vector":"1"}},{"base_weights":[1.4110848E-2,7.62217E-2,-6.925296E-1,-3.5321906E-1,2.086195E-1,-1.3533256E0,-2.6746008E-1,-1.17682196E-1,4.6369866E-2,-5.3446162E-2,6.23674E-2,-3.119764E-1,-5.6104757E-2,1.7118033E-2,-2.1030526E-1],"categories":[],"categories_nodes":[],"categories_segments":[],"categories_sizes":[],"default_left":[0,0,0,0,0,0,0,0,0,0,0,0,0,0,0],"id":54,"left_children":[1,3,5,7,9,11,13,-1,-1,-1,-1,-1,-1,-1,-1],"loss_changes":[2.6982355E2,3.2167648E2,1.3754185E2,1.8420358E2,2.127486E2,4.0420258E1,8.5967155E1,0E0,0E0,0E0,0E0,0E0,0E0,0E0,0E0],"parents":[2147483647,0,0,1,1,2,2,3,3,4,4,5,5,6,6],"right_children":[2,4,6,8,10,12,14,-1,-1,-1,-1,-1,-1,-1,-1],"split_conditions":[-1.2897258E-1,-5.6776624E-2,-3.002495E-1,8.135503E0,-6.1168015E-1,-1.6333077E0,-1.2225041E-1,-1.17682196E-1,4.6369866E-2,-5.3446162E-2,6.23674E-2,-3.119764E-1,-5.6104757E-2,1.7118033E-2,-2.1030526E-1],"split_indices":[76,83,205,5,222,31,173,0,0,0,0,0,0,0,0],"split_type":[0,0,0,0,0,0,0,0,0,0,0,0,0,0,0],"sum_hessian":[6.1381084E3,5.6464136E3,4.9169476E2,1.3284398E3,4.3179736E3,1.8811096E2,3.0358383E2,9.476399E2,3.807999E2,7.680799E2,3.5498938E3,1.5575807E2,3.2352886E1,2.1231088E2,9.1272934E1],"tree_param":{"num_deleted":"0","num_feature":"234","num_nodes":"15","size_leaf_vector":"1"}},{"base_weights":[-1.18185105E-2,6.6589236E-2,-5.7743734E-1,3.9350083E-1,-1.1229266E-1,-9.1577286E-1,-7.424113E-2,2.4500363E-2,2.0891479E-1,-2.8261155E-1,-1.3871588E-2,2.4506746E-2,-2.2120559E-1,-1.5440771E-1,1.923906E-2],"categories":[],"categories_nodes":[],"categories_segments":[],"categories_sizes":[],"default_left":[0,0,0,0,0,0,0,0,0,0,0,0,0,0,0],"id":55,"left_children":[1,3,5,7,9,11,13,-1,-1,-1,-1,-1,-1,-1,-1],"loss_changes":[2.6592233E2,3.0817636E2,1.2384488E2,3.2805505E2,1.8963902E2,8.6895355E1,3.6006035E1,0E0,0E0,0E0,0E0,0E0,0E0,0E0,0E0],"parents":[2147483647,0,0,1,1,2,2,3,3,4,4,5,5,6,6],"right_children":[2,4,6,8,10,12,14,-1,-1,-1,-1,-1,-1,-1,-1],"split_conditions":[1.5213995E0,-9.752359E-2,-2.500285E-1,-9.835616E-2,-9.835616E-2,3.0099595E0,-5.7287235E-2,2.4500363E-2,2.0891479E-1,-2.8261155E-1,-1.3871588E-2,2.4506746E-2,-2.2120559E-1,-1.5440771E-1,1.923906E-2],"split_indices":[232,230,145,227,227,4,83,0,0,0,0,0,0,0,0],"split_type":[0,0,0,0,0,0,0,0,0,0,0,0,0,0,0],"sum_hessian":[5.9856553E3,5.260644E3,7.250114E2,1.8585864E3,3.4020576E3,4.309524E2,2.9405902E2,1.3166471E3,5.419394E2,1.035319E2,3.2985256E3,6.6931496E1,3.640209E2,5.4375168E1,2.3968387E2],"tree_param":{"num_deleted":"0","num_feature":"234","num_nodes":"15","size_leaf_vector":"1"}},{"base_weights":[2.242323E-2,3.2165417E-1,-1.0913147E-1,4.2802206E-1,-7.763091E-1,-7.560405E-3,-7.2063345E-1,2.6518693E-2,1.3857569E-1,-2.8865716E-1,-8.360781E-2,3.3484425E-2,-7.756474E-2,-1.9477685E-1,-2.4993507E-2],"categories":[],"categories_nodes":[],"categories_segments":[],"categories_sizes":[],"default_left":[0,0,0,0,0,0,0,0,0,0,0,0,0,0,0],"id":56,"left_children":[1,3,5,7,9,11,13,-1,-1,-1,-1,-1,-1,-1,-1],"loss_changes":[2.3586998E2,2.1532266E2,2.5840912E2,1.302446E2,3.581939E1,2.3818535E2,8.8685425E1,0E0,0E0,0E0,0E0,0E0,0E0,0E0,0E0],"parents":[2147483647,0,0,1,1,2,2,3,3,4,4,5,5,6,6],"right_children":[2,4,6,8,10,12,14,-1,-1,-1,-1,-1,-1,-1,-1],"split_conditions":[-1.6716538E-1,1.1924207E0,1.4879324E0,-2.909662E-1,-3.6393023E0,-1.489055E-1,7.972783E0,2.6518693E-2,1.3857569E-1,-2.8865716E-1,-8.360781E-2,3.3484425E-2,-7.756474E-2,-1.9477685E-1,-2.4993507E-2],"split_indices":[148,216,220,205,21,96,5,0,0,0,0,0,0,0,0],"split_type":[0,0,0,0,0,0,0,0,0,0,0,0,0,0,0],"sum_hessian":[5.9818354E3,1.8247777E3,4.1570576E3,1.6664757E3,1.5830199E2,3.5694019E3,5.8765576E2,7.9149713E2,8.7497864E2,4.992924E1,1.0837275E2,2.446262E3,1.1231399E3,4.0999948E2,1.7765627E2],"tree_param":{"num_deleted":"0","num_feature":"234","num_nodes":"15","size_leaf_vector":"1"}},{"base_weights":[1.0655206E-2,-6.5559363E-1,7.3919825E-2,-1.1011848E0,-3.131999E-1,-1.7445746E-1,2.4424945E-1,-2.3934178E-1,2.4279678E-2,7.1526356E-3,-2.147316E-1,-1.008078E-1,4.4095587E-2,3.4426053E-3,9.8189615E-2],"categories":[],"categories_nodes":[],"categories_segments":[],"categories_sizes":[],"default_left":[0,0,0,0,0,0,0,0,0,0,0,0,0,0,0],"id":57,"left_children":[1,3,5,7,9,11,13,-1,-1,-1,-1,-1,-1,-1,-1],"loss_changes":[2.469151E2,7.563953E1,2.265841E2,2.6366241E1,7.841675E1,2.8425076E2,1.7781151E2,0E0,0E0,0E0,0E0,0E0,0E0,0E0,0E0],"parents":[2147483647,0,0,1,1,2,2,3,3,4,4,5,5,6,6],"right_children":[2,4,6,8,10,12,14,-1,-1,-1,-1,-1,-1,-1,-1],"split_conditions":[3.1374462E0,-1.965264E-1,-3.3146966E0,-1.1410501E0,-4.8521355E-1,8.283829E0,6.0007806E0,-2.3934178E-1,2.4279678E-2,7.1526356E-3,-2.147316E-1,-1.008078E-1,4.4095587E-2,3.4426053E-3,9.8189615E-2],"split_indices":[5,162,62,37,120,5,5,0,0,0,0,0,0,0,0],"split_type":[0,0,0,0,0,0,0,0,0,0,0,0,0,0,0],"sum_hessian":[5.8486436E3,5.030072E2,5.345636E3,2.136241E2,2.8938312E2,2.1743123E3,3.171324E3,1.9831664E2,1.5307469E1,2.01535E2,8.7848114E1,1.1846063E3,9.8970593E2,1.654471E3,1.516853E3],"tree_param":{"num_deleted":"0","num_feature":"234","num_nodes":"15","size_leaf_vector":"1"}},{"base_weights":[9.308639E-3,2.818146E-1,-1.3471822E-1,-5.4804254E-1,3.4288207E-1,-5.2379996E-1,-1.2252744E-3,-2.1836882E-2,-2.925093E-1,7.707286E-2,-1.6057622E-1,1.62563E-1,-1.19201206E-1,-1.1709986E-1,2.358817E-2],"categories":[],"categories_nodes":[],"categories_segments":[],"categories_sizes":[],"default_left":[0,0,0,0,0,0,0,0,0,0,0,0,0,0,0],"id":58,"left_children":[1,3,5,7,9,11,13,-1,-1,-1,-1,-1,-1,-1,-1],"loss_changes":[2.2569055E2,1.01684906E2,1.953283E2,5.447058E1,9.181018E1,9.512363E1,1.9576195E2,0E0,0E0,0E0,0E0,0E0,0E0,0E0,0E0],"parents":[2147483647,0,0,1,1,2,2,3,3,4,4,5,5,6,6],"right_children":[2,4,6,8,10,12,14,-1,-1,-1,-1,-1,-1,-1,-1],"split_conditions":[5.367576E0,-1.658788E-1,-4.1401085E-1,-4.536211E-1,-2.4024522E-2,3.2316704E0,-1.7503496E-1,-2.1836882E-2,-2.925093E-1,7.707286E-2,-1.6057622E-1,1.62563E-1,-1.19201206E-1,-1.1709986E-1,2.358817E-2],"split_indices":[4,78,119,122,72,2,69,0,0,0,0,0,0,0,0],"split_type":[0,0,0,0,0,0,0,0,0,0,0,0,0,0,0],"sum_hessian":[5.740133E3,1.9833837E3,3.7567493E3,1.331037E2,1.8502799E3,9.5574475E2,2.8010046E3,9.379774E1,3.930596E1,1.7874125E3,6.286748E1,4.6285164E1,9.0945953E2,4.7133105E2,2.3296736E3],"tree_param":{"num_deleted":"0","num_feature":"234","num_nodes":"15","size_leaf_vector":"1"}},{"base_weights":[2.2913653E-2,9.5515504E-2,-4.9391297E-1,3.7202948E-1,-4.2879593E-2,-6.7272407E-1,2.2473904E-1,2.74138E-2,2.0886588E-1,-8.250161E-2,1.905003E-2,-1.9631004E-1,6.6469307E-3,1.371303E-1,-7.813103E-2],"categories":[],"categories_nodes":[],"categories_segments":[],"categories_sizes":[],"default_left":[0,0,0,0,0,0,0,0,0,0,0,0,0,0,0],"id":59,"left_children":[1,3,5,7,9,11,13,-1,-1,-1,-1,-1,-1,-1,-1],"loss_changes":[2.1356108E2,1.9108124E2,9.088678E1,2.6222156E2,1.70246E2,1.2294347E2,4.2018364E1,0E0,0E0,0E0,0E0,0E0,0E0,0E0,0E0],"parents":[2147483647,0,0,1,1,2,2,3,3,4,4,5,5,6,6],"right_children":[2,4,6,8,10,12,14,-1,-1,-1,-1,-1,-1,-1,-1],"split_conditions":[1.5213995E0,-9.752359E-2,8.802313E0,-9.835616E-2,-4.1400713E-1,-2.5957263E-1,8.874691E0,2.74138E-2,2.0886588E-1,-8.250161E-2,1.905003E-2,-1.9631004E-1,6.6469307E-3,1.371303E-1,-7.813103E-2],"split_indices":[232,230,5,227,119,146,4,0,0,0,0,0,0,0,0],"split_type":[0,0,0,0,0,0,0,0,0,0,0,0,0,0,0],"sum_hessian":[5.681312E3,4.98527E3,6.960424E2,1.6602883E3,3.3249814E3,5.577298E2,1.3831262E2,1.2348809E3,4.2540744E2,9.0201776E2,2.4229636E3,3.867384E2,1.7099141E2,7.884881E1,5.9463814E1],"tree_param":{"num_deleted":"0","num_feature":"234","num_nodes":"15","size_leaf_vector":"1"}},{"base_weights":[8.964576E-3,-2.9312694E-1,1.3159142E-1,-9.714407E-1,-9.9922754E-2,4.6490112E-1,-1.3110447E-1,-2.5361702E-1,-2.4033686E-2,-2.6189348E-1,7.118421E-3,-1.1197646E-2,1.19158246E-1,-8.1534125E-2,2.9502615E-2],"categories":[],"categories_nodes":[],"categories_segments":[],"categories_sizes":[],"default_left":[0,0,0,0,0,0,0,0,0,0,0,0,0,0,0],"id":60,"left_children":[1,3,5,7,9,11,13,-1,-1,-1,-1,-1,-1,-1,-1],"loss_changes":[2.0884958E2,2.127239E2,3.5147784E2,9.004721E1,2.0894672E2,1.2082022E2,1.7343027E2,0E0,0E0,0E0,0E0,0E0,0E0,0E0,0E0],"parents":[2147483647,0,0,1,1,2,2,3,3,4,4,5,5,6,6],"right_children":[2,4,6,8,10,12,14,-1,-1,-1,-1,-1,-1,-1,-1],"split_conditions":[5.349595E0,-1.6093056E-1,6.343343E0,-1.8476112E-1,-3.3587668E0,-3.9151043E-2,7.870772E0,-2.5361702E-1,-2.4033686E-2,-2.6189348E-1,7.118421E-3,-1.1197646E-2,1.19158246E-1,-8.1534125E-2,2.9502615E-2],"split_indices":[5,128,4,162,18,125,5,0,0,0,0,0,0,0,0],"split_type":[0,0,0,0,0,0,0,0,0,0,0,0,0,0,0],"sum_hessian":[5.628028E3,1.6227101E3,4.0053176E3,3.5515414E2,1.267556E3,1.7638584E3,2.2414592E3,2.6147266E2,9.3681496E1,1.2341677E2,1.1441392E3,3.5463855E2,1.4092198E3,1.1238885E3,1.1175707E3],"tree_param":{"num_deleted":"0","num_feature":"234","num_nodes":"15","size_leaf_vector":"1"}},{"base_weights":[4.800102E-3,4.5077577E-2,-9.97009E-1,-3.073487E-1,1.7663534E-1,-6.193754E-1,-1.6362538E0,-2.3133147E-1,-3.448301E-2,6.103325E-2,-6.1761927E-2,-1.9284485E-1,2.3726588E-2,2.2043048E-3,-3.3756718E-1],"categories":[],"categories_nodes":[],"categories_segments":[],"categories_sizes":[],"default_left":[0,0,0,0,0,0,0,0,0,0,0,0,0,0,0],"id":61,"left_children":[1,3,5,7,9,11,13,-1,-1,-1,-1,-1,-1,-1,-1],"loss_changes":[2.2025504E2,2.4364291E2,4.5636383E1,1.6257864E2,2.3918439E2,3.6482525E1,6.6508484E0,0E0,0E0,0E0,0E0,0E0,0E0,0E0,0E0],"parents":[2147483647,0,0,1,1,2,2,3,3,4,4,5,5,6,6],"right_children":[2,4,6,8,10,12,14,-1,-1,-1,-1,-1,-1,-1,-1],"split_conditions":[-2.4024522E-2,-1.6900249E-1,-1.6652247E-1,-1.6092588E-1,8.522804E0,-2.1974654E0,-1.1683002E0,-2.3133147E-1,-3.448301E-2,6.103325E-2,-6.1761927E-2,-1.9284485E-1,2.3726588E-2,2.2043048E-3,-3.3756718E-1],"split_indices":[72,69,85,134,4,7,206,0,0,0,0,0,0,0,0],"split_type":[0,0,0,0,0,0,0,0,0,0,0,0,0,0,0],"sum_hessian":[5.4503564E3,5.2443823E3,2.059742E2,1.4235186E3,3.8208638E3,1.3576947E2,7.0204735E1,1.8986375E2,1.2336548E3,3.0226277E3,7.98236E2,9.157987E1,4.4189598E1,2.1921258E0,6.80126E1],"tree_param":{"num_deleted":"0","num_feature":"234","num_nodes":"15","size_leaf_vector":"1"}},{"base_weights":[-1.4525775E-3,5.289543E-2,-6.937551E-1,-4.5653653E-1,1.369584E-1,-3.591411E-1,-1.2113982E0,-5.956606E-2,-3.6994934E-1,-1.6628554E-2,6.2235516E-2,-1.9993718E-1,8.944233E-2,-7.880774E-2,-3.205049E-1],"categories":[],"categories_nodes":[],"categories_segments":[],"categories_sizes":[],"default_left":[0,0,0,0,0,0,0,0,0,0,0,0,0,0,0],"id":62,"left_children":[1,3,5,7,9,11,13,-1,-1,-1,-1,-1,-1,-1,-1],"loss_changes":[2.0226288E2,2.1366754E2,6.544545E1,1.5330266E2,1.6431375E2,1.2877937E2,4.504727E1,0E0,0E0,0E0,0E0,0E0,0E0,0E0,0E0],"parents":[2147483647,0,0,1,1,2,2,3,3,4,4,5,5,6,6],"right_children":[2,4,6,8,10,12,14,-1,-1,-1,-1,-1,-1,-1,-1],"split_conditions":[-1.2076994E-1,-1.6930829E-1,5.9150147E0,-2.2712083E-1,6.0007806E0,6.0007806E0,-1.7626628E-1,-5.956606E-2,-3.6994934E-1,-1.6628554E-2,6.2235516E-2,-1.9993718E-1,8.944233E-2,-7.880774E-2,-3.205049E-1],"split_indices":[84,76,4,107,5,5,147,0,0,0,0,0,0,0,0],"split_type":[0,0,0,0,0,0,0,0,0,0,0,0,0,0,0],"sum_hessian":[5.3641406E3,4.9778374E3,3.8630295E2,7.0175745E2,4.27608E3,2.3989357E2,1.464094E2,6.355051E2,6.6252335E1,1.8901648E3,2.3859153E3,1.3309315E2,1.068004E2,5.0716675E1,9.569272E1],"tree_param":{"num_deleted":"0","num_feature":"234","num_nodes":"15","size_leaf_vector":"1"}},{"base_weights":[9.6302545E-3,7.969864E-2,-4.9645105E-1,-1.9011685E-1,2.456423E-1,-1.0009305E0,-4.1855652E-2,-7.119593E-2,4.868561E-2,1.00909054E-1,3.916231E-3,-2.7797356E-1,-1.036206E-1,4.5845956E-2,-1.6361666E-1],"categories":[],"categories_nodes":[],"categories_segments":[],"categories_sizes":[],"default_left":[0,0,0,0,0,0,0,0,0,0,0,0,0,0,0],"id":63,"left_children":[1,3,5,7,9,11,13,-1,-1,-1,-1,-1,-1,-1,-1],"loss_changes":[1.9100471E2,2.1210959E2,1.499124E2,1.302114E2,1.7152437E2,5.44552E1,7.462071E1,0E0,0E0,0E0,0E0,0E0,0E0,0E0,0E0],"parents":[2147483647,0,0,1,1,2,2,3,3,4,4,5,5,6,6],"right_children":[2,4,6,8,10,12,14,-1,-1,-1,-1,-1,-1,-1,-1],"split_conditions":[-1.4842686E-1,-1.9121648E-1,-2.9818115E-1,7.870772E0,-1.5566096E-1,-2.6608875E0,-1.2375638E-1,-7.119593E-2,4.868561E-2,1.00909054E-1,3.916231E-3,-2.7797356E-1,-1.036206E-1,4.5845956E-2,-1.6361666E-1],"split_indices":[84,164,205,5,98,23,173,0,0,0,0,0,0,0,0],"split_type":[0,0,0,0,0,0,0,0,0,0,0,0,0,0,0],"sum_hessian":[5.377035E3,4.7269814E3,6.500537E2,1.799599E3,2.9273823E3,3.051688E2,3.4488492E2,1.3024437E3,4.971553E2,1.3614924E3,1.5658899E3,1.6370094E2,1.4146785E2,2.581312E2,8.67537E1],"tree_param":{"num_deleted":"0","num_feature":"234","num_nodes":"15","size_leaf_vector":"1"}},{"base_weights":[2.347847E-2,-3.5469252E-1,1.2076479E-1,-8.3607334E-1,7.7927314E-2,-3.6038432E-1,2.1926212E-1,-4.044895E-2,-2.2192119E-1,8.908111E-2,-1.4060968E-1,-1.387383E-1,5.1703822E-2,5.7893127E-2,-1.07441925E-1],"categories":[],"categories_nodes":[],"categories_segments":[],"categories_sizes":[],"default_left":[0,0,0,0,0,0,0,0,0,0,0,0,0,0,0],"id":64,"left_children":[1,3,5,7,9,11,13,-1,-1,-1,-1,-1,-1,-1,-1],"loss_changes":[1.9451326E2,2.2569272E2,1.9966434E2,8.761447E1,1.663372E2,1.4869418E2,1.8629507E2,0E0,0E0,0E0,0E0,0E0,0E0,0E0,0E0],"parents":[2147483647,0,0,1,1,2,2,3,3,4,4,5,5,6,6],"right_children":[2,4,6,8,10,12,14,-1,-1,-1,-1,-1,-1,-1,-1],"split_conditions":[-4.02533E0,8.846799E0,4.3460884E0,4.853001E-2,1.4736822E1,-1.2739858E-1,-6.82657E-2,-4.044895E-2,-2.2192119E-1,8.908111E-2,-1.4060968E-1,-1.387383E-1,5.1703822E-2,5.7893127E-2,-1.07441925E-1],"split_indices":[63,5,5,233,4,194,228,0,0,0,0,0,0,0,0],"split_type":[0,0,0,0,0,0,0,0,0,0,0,0,0,0,0],"sum_hessian":[5.2768135E3,1.0768048E3,4.200009E3,5.0758154E2,5.692233E2,7.112616E2,3.488747E3,1.5574722E2,3.5183432E2,3.8863327E2,1.8059003E2,4.6200732E2,2.4925424E2,3.195419E3,2.933283E2],"tree_param":{"num_deleted":"0","num_feature":"234","num_nodes":"15","size_leaf_vector":"1"}},{"base_weights":[-4.1957987E-3,1.1249435E-1,-3.5155013E-1,1.6104585E-1,-8.2206553E-1,-5.118081E-1,1.4408708E-1,2.2838408E-2,2.262409E-1,-2.1707582E-1,2.8602386E-2,-1.6917174E-1,-3.1593245E-2,7.941474E-2,-1.1739284E-1],"categories":[],"categories_nodes":[],"categories_segments":[],"categories_sizes":[],"default_left":[0,0,0,0,0,0,0,0,0,0,0,0,0,0,0],"id":65,"left_children":[1,3,5,7,9,11,13,-1,-1,-1,-1,-1,-1,-1,-1],"loss_changes":[2.0769005E2,1.7460527E2,1.02754715E2,1.6513666E2,4.9180695E1,1.14473206E2,6.00677E1,0E0,0E0,0E0,0E0,0E0,0E0,0E0,0E0],"parents":[2147483647,0,0,1,1,2,2,3,3,4,4,5,5,6,6],"right_children":[2,4,6,8,10,12,14,-1,-1,-1,-1,-1,-1,-1,-1],"split_conditions":[1.1352787E0,-2.4024522E-2,-2.4804965E-1,4.47853E-2,-9.444998E-2,4.70455E-1,7.111863E0,2.2838408E-2,2.262409E-1,-2.1707582E-1,2.8602386E-2,-1.6917174E-1,-3.1593245E-2,7.941474E-2,-1.1739284E-1],"split_indices":[160,72,145,160,193,70,4,0,0,0,0,0,0,0,0],"split_type":[0,0,0,0,0,0,0,0,0,0,0,0,0,0,0],"sum_hessian":[5.113528E3,3.8299783E3,1.2835493E3,3.6448684E3,1.8510988E2,9.699629E2,3.1358646E2,3.4823784E3,1.6248988E2,1.4502211E2,4.0087776E1,4.952131E2,4.747498E2,2.34765E2,7.882144E1],"tree_param":{"num_deleted":"0","num_feature":"234","num_nodes":"15","size_leaf_vector":"1"}},{"base_weights":[5.231901E-4,-2.829896E-1,1.2497766E-1,1.90138E-1,-4.5751882E-1,2.6173887E-1,-2.6653016E-1,8.291523E-2,-1.3618472E-1,-2.1742578E-1,-5.1079996E-2,6.1970573E-2,-2.3089878E-1,-1.3983154E-1,1.92136E-2],"categories":[],"categories_nodes":[],"categories_segments":[],"categories_sizes":[],"default_left":[0,0,0,0,0,0,0,0,0,0,0,0,0,0,0],"id":66,"left_children":[1,3,5,7,9,11,13,-1,-1,-1,-1,-1,-1,-1,-1],"loss_changes":[1.7945619E2,1.2857E2,1.8962302E2,8.37786E1,1.4290965E2,1.8040634E2,1.4431613E2,0E0,0E0,0E0,0E0,0E0,0E0,0E0,0E0],"parents":[2147483647,0,0,1,1,2,2,3,3,4,4,5,5,6,6],"right_children":[2,4,6,8,10,12,14,-1,-1,-1,-1,-1,-1,-1,-1],"split_conditions":[-2.6442367E-1,-4.2955298E-2,1.1359468E0,-4.496044E-1,6.0007806E0,2.4271233E-1,-2.628921E-1,8.291523E-2,-1.3618472E-1,-2.1742578E-1,-5.1079996E-2,6.1970573E-2,-2.3089878E-1,-1.3983154E-1,1.92136E-2],"split_indices":[144,81,148,122,5,74,144,0,0,0,0,0,0,0,0],"split_type":[0,0,0,0,0,0,0,0,0,0,0,0,0,0,0],"sum_hessian":[5.076424E3,1.5464255E3,3.5299983E3,4.164527E2,1.1299729E3,2.6175503E3,9.124479E2,3.333076E2,8.314511E1,2.691547E2,8.608182E2,2.5353916E3,8.2158745E1,4.1405743E2,4.9839044E2],"tree_param":{"num_deleted":"0","num_feature":"234","num_nodes":"15","size_leaf_vector":"1"}},{"base_weights":[3.718796E-3,1.1243878E-1,-2.87723E-1,-1.1970287E-1,4.668699E-1,-5.9400356E-1,2.4417526E-1,-1.3352214E-1,4.183972E-3,-7.934428E-3,1.2169124E-1,-1.7699476E-1,1.3654544E-2,1.2766151E-1,-1.0706872E-1],"categories":[],"categories_nodes":[],"categories_segments":[],"categories_sizes":[],"default_left":[0,0,0,0,0,0,0,0,0,0,0,0,0,0,0],"id":67,"left_children":[1,3,5,7,9,11,13,-1,-1,-1,-1,-1,-1,-1,-1],"loss_changes":[1.5785313E2,2.988912E2,2.212495E2,1.6937268E2,1.0326355E2,1.661955E2,1.5471748E2,0E0,0E0,0E0,0E0,0E0,0E0,0E0,0E0],"parents":[2147483647,0,0,1,1,2,2,3,3,4,4,5,5,6,6],"right_children":[2,4,6,8,10,12,14,-1,-1,-1,-1,-1,-1,-1,-1],"split_conditions":[7.479363E0,6.2361054E0,9.784154E0,-2.9385367E-1,-3.914634E-2,-3.1932077E0,1.4736822E1,-1.3352214E-1,4.183972E-3,-7.934428E-3,1.2169124E-1,-1.7699476E-1,1.3654544E-2,1.2766151E-1,-1.0706872E-1],"split_indices":[4,5,5,155,131,24,4,0,0,0,0,0,0,0,0],"split_type":[0,0,0,0,0,0,0,0,0,0,0,0,0,0,0],"sum_hessian":[4.972313E3,3.6238713E3,1.3484417E3,2.1915208E3,1.4323507E3,8.554538E2,4.929879E2,4.4390576E2,1.747615E3,3.135349E2,1.1188158E3,5.9327075E2,2.6218304E2,3.2812085E2,1.6486705E2],"tree_param":{"num_deleted":"0","num_feature":"234","num_nodes":"15","size_leaf_vector":"1"}},{"base_weights":[6.710999E-3,-3.4007046E-1,1.0026304E-1,-6.041947E-1,1.1064208E-1,2.3210278E-1,-3.901284E-1,-6.630042E-2,-2.4603343E-1,1.0659986E-1,-1.2765591E-1,6.616577E-2,-5.619816E-2,-1.3707146E-1,1.4862473E-2],"categories":[],"categories_nodes":[],"categories_segments":[],"categories_sizes":[],"default_left":[0,0,0,0,0,0,0,0,0,0,0,0,0,0,0],"id":68,"left_children":[1,3,5,7,9,11,13,-1,-1,-1,-1,-1,-1,-1,-1],"loss_changes":[1.5724043E2,1.2296211E2,2.472562E2,1.0878325E2,1.2332689E2,1.5304523E2,1.1146019E2,0E0,0E0,0E0,0E0,0E0,0E0,0E0,0E0],"parents":[2147483647,0,0,1,1,2,2,3,3,4,4,5,5,6,6],"right_children":[2,4,6,8,10,12,14,-1,-1,-1,-1,-1,-1,-1,-1],"split_conditions":[-1.6093244E-1,7.904674E0,-1.5673411E-1,-2.4348116E-1,8.618919E0,-3.9017355E-1,-4.1376853E-1,-6.630042E-2,-2.4603343E-1,1.0659986E-1,-1.2765591E-1,6.616577E-2,-5.619816E-2,-1.3707146E-1,1.4862473E-2],"split_indices":[128,5,76,222,4,119,119,0,0,0,0,0,0,0,0],"split_type":[0,0,0,0,0,0,0,0,0,0,0,0,0,0,0],"sum_hessian":[4.837284E3,1.0246897E3,3.8125945E3,6.451446E2,3.7954514E2,3.0070095E3,8.055849E2,4.548192E2,1.9032538E2,2.4369019E2,1.3585493E2,2.5234375E3,4.8357193E2,4.9118967E2,3.1439523E2],"tree_param":{"num_deleted":"0","num_feature":"234","num_nodes":"15","size_leaf_vector":"1"}},{"base_weights":[1.7250193E-2,-3.526061E-1,1.2248048E-1,-1.1460068E0,-2.0963372E-1,-3.1188586E-1,2.104279E-1,-2.7287623E-1,-7.007926E-2,-1.483249E-1,-1.2671914E-3,-1.493999E-1,-1.0016947E-2,-4.304527E-2,6.539546E-2],"categories":[],"categories_nodes":[],"categories_segments":[],"categories_sizes":[],"default_left":[0,0,0,0,0,0,0,0,0,0,0,0,0,0,0],"id":69,"left_children":[1,3,5,7,9,11,13,-1,-1,-1,-1,-1,-1,-1,-1],"loss_changes":[1.8853374E2,1.20371506E2,1.4438416E2,2.568814E1,9.889826E1,7.2275894E1,1.5610806E2,0E0,0E0,0E0,0E0,0E0,0E0,0E0,0E0],"parents":[2147483647,0,0,1,1,2,2,3,3,4,4,5,5,6,6],"right_children":[2,4,6,8,10,12,14,-1,-1,-1,-1,-1,-1,-1,-1],"split_conditions":[-1.7503496E-1,4.4099894E0,-4.1402206E-1,-1.5282028E0,-3.5011063E0,-3.0436435E0,-5.6824494E-2,-2.7287623E-1,-7.007926E-2,-1.483249E-1,-1.2671914E-3,-1.493999E-1,-1.0016947E-2,-4.304527E-2,6.539546E-2],"split_indices":[69,5,119,51,58,55,83,0,0,0,0,0,0,0,0],"split_type":[0,0,0,0,0,0,0,0,0,0,0,0,0,0,0],"sum_hessian":[4.8341675E3,1.0679401E3,3.7662275E3,1.5759824E2,9.103418E2,6.3182385E2,3.1344038E3,1.2075422E2,3.684402E1,2.4790106E2,6.6244073E2,2.3372472E2,3.9809915E2,6.7266144E2,2.4617424E3],"tree_param":{"num_deleted":"0","num_feature":"234","num_nodes":"15","size_leaf_vector":"1"}},{"base_weights":[-1.2432702E-2,3.2204053E-1,-1.2787445E-1,-2.4218613E-1,4.7600824E-1,-6.277561E-1,1.3703632E-2,-2.3126796E-1,2.1873403E-2,1.1829724E-1,-1.1422694E-7,-2.9913718E-2,-1.9086455E-1,-2.8763158E-2,7.388886E-2],"categories":[],"categories_nodes":[],"categories_segments":[],"categories_sizes":[],"default_left":[0,0,0,0,0,0,0,0,0,0,0,0,0,0,0],"id":70,"left_children":[1,3,5,7,9,11,13,-1,-1,-1,-1,-1,-1,-1,-1],"loss_changes":[1.8152003E2,1.0538537E2,2.4745938E2,8.486017E1,5.2248245E1,1.1968002E2,1.5317767E2,0E0,0E0,0E0,0E0,0E0,0E0,0E0,0E0],"parents":[2147483647,0,0,1,1,2,2,3,3,4,4,5,5,6,6],"right_children":[2,4,6,8,10,12,14,-1,-1,-1,-1,-1,-1,-1,-1],"split_conditions":[4.9211545E0,3.8305967E0,5.3992047E0,-3.914327E-2,1.2999394E0,5.0310303E-2,-2.9318702E-1,-2.3126796E-1,2.1873403E-2,1.1829724E-1,-1.1422694E-7,-2.9913718E-2,-1.9086455E-1,-2.8763158E-2,7.388886E-2],"split_indices":[4,5,5,125,231,233,155,0,0,0,0,0,0,0,0],"split_type":[0,0,0,0,0,0,0,0,0,0,0,0,0,0,0],"sum_hessian":[4.691279E3,1.2011969E3,3.490082E3,2.5676123E2,9.4443567E2,7.666704E2,2.7234116E3,6.8215866E1,1.8854535E2,7.5924316E2,1.851925E2,3.1419485E2,4.524756E2,1.8894668E3,8.339448E2],"tree_param":{"num_deleted":"0","num_feature":"234","num_nodes":"15","size_leaf_vector":"1"}},{"base_weights":[2.2233415E-2,-1.42728E-1,2.3536508E-1,7.197494E-2,-6.065928E-1,2.0243381E-1,1.0439851E-1,-9.5206074E-2,3.933805E-2,-2.1203282E-1,-4.9950458E-2,5.2235942E-2,-7.3905334E-2],"categories":[],"categories_nodes":[],"categories_segments":[],"categories_sizes":[],"default_left":[0,0,0,0,0,0,0,0,0,0,0,0,0],"id":71,"left_children":[1,3,5,7,9,-1,11,-1,-1,-1,-1,-1,-1],"loss_changes":[1.6509406E2,2.6389328E2,2.0778342E2,1.2440271E2,1.3420993E2,0E0,1.3115497E2,0E0,0E0,0E0,0E0,0E0,0E0],"parents":[2147483647,0,0,1,1,2,2,3,3,4,4,6,6],"right_children":[2,4,6,8,10,-1,12,-1,-1,-1,-1,-1,-1],"split_conditions":[4.70455E-1,4.6360922E-1,1.0186019E0,-3.6436634E0,5.951616E0,2.0243381E-1,-1.0232061E-2,-9.5206074E-2,3.933805E-2,-2.1203282E-1,-4.9950458E-2,5.2235942E-2,-7.3905334E-2],"split_indices":[70,70,70,18,5,0,222,0,0,0,0,0,0],"split_type":[0,0,0,0,0,0,0,0,0,0,0,0,0],"sum_hessian":[4.6856675E3,2.6419846E3,2.0436827E3,1.8087849E3,8.3319965E2,2.8988394E2,1.7537987E3,3.3256982E2,1.4762151E3,3.6241174E2,4.7078793E2,1.319684E3,4.3411475E2],"tree_param":{"num_deleted":"0","num_feature":"234","num_nodes":"13","size_leaf_vector":"1"}},{"base_weights":[-2.9929483E-3,-1.3579018E-1,2.4696234E-1,1.8941078E-1,-3.5365707E-1,4.1252962E-1,-1.2944186E-1,8.8927835E-2,-2.0419006E-1,-1.5479833E-1,-3.0069588E-2,1.39502E-1,3.279441E-2,2.132837E-2,-1.03299215E-1],"categories":[],"categories_nodes":[],"categories_segments":[],"categories_sizes":[],"default_left":[0,0,0,0,0,0,0,0,0,0,0,0,0,0,0],"id":72,"left_children":[1,3,5,7,9,11,13,-1,-1,-1,-1,-1,-1,-1,-1],"loss_changes":[1.5139317E2,2.1140927E2,9.890529E1,3.7234244E2,1.5193382E2,7.7281296E1,4.4817337E1,0E0,0E0,0E0,0E0,0E0,0E0,0E0,0E0],"parents":[2147483647,0,0,1,1,2,2,3,3,4,4,5,5,6,6],"right_children":[2,4,6,8,10,12,14,-1,-1,-1,-1,-1,-1,-1,-1],"split_conditions":[-2.9130977E-1,-4.2955298E-2,6.6970897E-1,-4.3960515E-1,6.0007806E0,-1.6716538E-1,-1.3973083E-1,8.8927835E-2,-2.0419006E-1,-1.5479833E-1,-3.0069588E-2,1.39502E-1,3.279441E-2,2.132837E-2,-1.03299215E-1],"split_indices":[205,81,216,120,5,148,89,0,0,0,0,0,0,0,0],"split_type":[0,0,0,0,0,0,0,0,0,0,0,0,0,0,0],"sum_hessian":[4.55123E3,2.9739185E3,1.5773113E3,1.1931486E3,1.7807699E3,1.0953085E3,4.820028E2,9.880456E2,2.05103E2,5.757989E2,1.204971E3,5.0587302E2,5.894355E2,3.0147946E2,1.8052335E2],"tree_param":{"num_deleted":"0","num_feature":"234","num_nodes":"15","size_leaf_vector":"1"}},{"base_weights":[-4.287616E-3,2.6846018E-1,-1.2678158E-1,-1.8594588E-1,4.2390257E-1,-3.548481E-1,9.565982E-2,2.7086115E-2,-2.3553291E-1,5.0894166E-3,1.16258465E-1,1.8865546E-2,-1.17151916E-1,7.618063E-2,-3.7354883E-2],"categories":[],"categories_nodes":[],"categories_segments":[],"categories_sizes":[],"default_left":[0,0,0,0,0,0,0,0,0,0,0,0,0,0,0],"id":73,"left_children":[1,3,5,7,9,11,13,-1,-1,-1,-1,-1,-1,-1,-1],"loss_changes":[1.4982314E2,9.857874E1,1.5720964E2,1.1485211E2,6.49099E1,1.5896115E2,1.26901764E2,0E0,0E0,0E0,0E0,0E0,0E0,0E0,0E0],"parents":[2147483647,0,0,1,1,2,2,3,3,4,4,5,5,6,6],"right_children":[2,4,6,8,10,12,14,-1,-1,-1,-1,-1,-1,-1,-1],"split_conditions":[5.2479944E0,4.3460884E0,6.8162045E0,-3.9017355E-1,-1.6371071E-1,-1.7626628E-1,8.018827E0,2.7086115E-2,-2.3553291E-1,5.0894166E-3,1.16258465E-1,1.8865546E-2,-1.17151916E-1,7.618063E-2,-3.7354883E-2],"split_indices":[4,5,5,119,209,147,4,0,0,0,0,0,0,0,0],"split_type":[0,0,0,0,0,0,0,0,0,0,0,0,0,0,0],"sum_hessian":[4.474716E3,1.3847115E3,3.0900042E3,3.525308E2,1.0321808E3,1.5244635E3,1.5655408E3,2.6943423E2,8.309654E1,2.9409064E2,7.3809015E2,5.184615E2,1.006002E3,7.782058E2,7.8733496E2],"tree_param":{"num_deleted":"0","num_feature":"234","num_nodes":"15","size_leaf_vector":"1"}},{"base_weights":[9.313094E-3,8.018249E-2,-4.7806495E-1,-6.862364E-1,1.2238837E-1,-6.2274796E-1,1.4778273E-1,-3.233277E-2,-2.3732542E-1,7.952344E-2,-1.4768989E-3,-1.4029486E-1,1.539629E-1,8.084666E-2,-1.3439775E-1],"categories":[],"categories_nodes":[],"categories_segments":[],"categories_sizes":[],"default_left":[0,0,0,0,0,0,0,0,0,0,0,0,0,0,0],"id":74,"left_children":[1,3,5,7,9,11,13,-1,-1,-1,-1,-1,-1,-1,-1],"loss_changes":[1.5221446E2,1.2483789E2,5.1164085E1,5.1792908E1,1.3047765E2,5.2627747E1,2.423742E1,0E0,0E0,0E0,0E0,0E0,0E0,0E0,0E0],"parents":[2147483647,0,0,1,1,2,2,3,3,4,4,5,5,6,6],"right_children":[2,4,6,8,10,12,14,-1,-1,-1,-1,-1,-1,-1,-1],"split_conditions":[1.5213995E0,-1.6590172E-1,-2.1510243E0,-4.6691903E-1,-9.752359E-2,8.870498E-2,-2.2065074E0,-3.233277E-2,-2.3732542E-1,7.952344E-2,-1.4768989E-3,-1.4029486E-1,1.539629E-1,8.084666E-2,